7.527460693381726742e-04
-1.547234132885932922e-03
-1.359365269308909774e-04
-5.137847037985920906e-04
2.590459189377725124e-04
-3.049682418350130320e-04
1.112823607400059700e-03
0.000000000000000000e+00
-1.610394247109070420e-04
-1.152472919784486294e-03
-1.420746906660497189e-03
-3.872461384162306786e-04
-2.276787767186760902e-03
1.667363801971077919e-03
-1.120060565881431103e-03
-1.547685707919299603e-03
-5.475728539749979973e-04
-4.245612944941967726e-04
1.521383761428296566e-03
6.915484555065631866e-04
-8.524933364242315292e-04
-8.506786252837628126e-05
5.791984222014434636e-05
-2.272113226354122162e-03
2.370373404119163752e-04
4.714264650829136372e-05
4.184451827313750982e-04
-2.449822612106800079e-03
7.452751742675900459e-04
3.843251033686101437e-04
-1.193575095385313034e-03
-3.285695798695087433e-03
6.875724066048860550e-04
-4.987424472346901894e-04
-1.370285404846072197e-03
-1.575662638060748577e-03
2.211831306340172887e-04
3.871307999361306429e-04
3.169545088894665241e-04
-1.082527451217174530e-03
1.697083585895597935e-03
2.074924064800143242e-03
-4.005346854683011770e-04
-7.806721987435594201e-05
-1.092998194508254528e-03
-1.382260234095156193e-03
-1.250944100320339203e-03
1.430141537639428861e-06
-1.286299549974501133e-03
-1.060497364960610867e-03
1.323021366260945797e-03
-1.817877287976443768e-03
5.153612437425181270e-05
3.156501334160566330e-04
-2.197465160861611366e-03
-1.717807608656585217e-03
-3.229516150895506144e-04
-8.200330194085836411e-05
1.765213441103696823e-03
8.827649435261264443e-05
5.362465744838118553e-04
-6.271741585806012154e-05
-1.871662330813705921e-03
-1.284040918108075857e-04
5.459051462821662426e-04
1.323313626926392317e-04
1.475585013395175338e-04
1.915799453854560852e-03
1.221324928337708116e-04
-7.546537090092897415e-04
-2.684563223738223314e-04
9.186771931126713753e-04
-2.350534545257687569e-03
-9.598961332812905312e-04
4.625925794243812561e-03
-4.761097079608589411e-04
-7.947090780362486839e-04
-1.298163086175918579e-03
-3.224083629902452230e-04
9.335760260000824928e-04
-2.742328797467052937e-04
7.337317219935357571e-04
2.903939457610249519e-05
-7.665021257707849145e-05
1.154829980805516243e-03
0.000000000000000000e+00
1.688844291493296623e-03
-3.378201799932867289e-04
-3.545537183526903391e-04
-1.725803012959659100e-03
-2.915883378591388464e-04
6.683539686491712928e-05
-3.821105638053268194e-04
-3.259168239310383797e-03
-2.057909965515136719e-03
-2.220374764874577522e-03
5.593750160187482834e-03
-2.022389671765267849e-04
-9.569697431288659573e-04
0.000000000000000000e+00
-1.901011331938207150e-03
-9.775366634130477905e-04
-2.415331779047846794e-03
3.938142326660454273e-04
-3.543531347531825304e-04
-4.882374487351626158e-04
1.246109139174222946e-03
2.647984656505286694e-04
-3.626294666901230812e-03
-1.393601414747536182e-03
4.998502554371953011e-04
-2.148965286323800683e-04
-1.566283754073083401e-03
6.087800720706582069e-04
-8.472564513795077801e-04
-7.926829275675117970e-04
1.182950800284743309e-04
-5.425562849268317223e-04
0.000000000000000000e+00
-1.814353629015386105e-03
-1.744665554724633694e-03
0.000000000000000000e+00
0.000000000000000000e+00
1.709293574094772339e-03
-1.019991468638181686e-03
-1.573822111822664738e-03
1.366217620670795441e-04
-8.376244222745299339e-04
