8.482301235198974609e-02,-4.523838683962821960e-02,-7.312549278140068054e-03,1.185738481581211090e-02,-3.412915021181106567e-02,9.649929404258728027e-02,-8.046875894069671631e-02,-1.029330492019653320e-02,8.425482362508773804e-02,-1.026893109083175659e-01,-8.381147682666778564e-02,4.219700116664171219e-03,-1.184029877185821533e-01,-2.010018751025199890e-02,-1.101576462388038635e-01,-9.918849170207977295e-02,-6.098552048206329346e-02,1.636335742659866810e-03,1.254487633705139160e-01,-1.016835048794746399e-01,2.850800938904285431e-02,1.054147258400917053e-01,-5.328723788261413574e-02,9.323516488075256348e-02,-2.576402574777603149e-02,5.603374168276786804e-02,-3.102938644587993622e-02,1.039650514721870422e-01,-4.569598659873008728e-02,1.113880947232246399e-01,2.662183716893196106e-02,6.925588101148605347e-02,1.033976301550865173e-01,2.818247489631175995e-02,-5.397291108965873718e-02,8.612832427024841309e-02,8.470092900097370148e-03,-5.900913476943969727e-02,-1.033013686537742615e-03,1.199082657694816589e-02,-5.681142210960388184e-02,-9.366101585328578949e-03,-2.986642997711896896e-03,-1.588646322488784790e-02,3.061231598258018494e-02,1.270470768213272095e-01,7.475377619266510010e-02,-9.853292256593704224e-02,2.273364178836345673e-02,9.797398000955581665e-03,-8.348321169614791870e-02,-2.385211363434791565e-02,5.968284606933593750e-02,5.722009763121604919e-02,-4.483133926987648010e-02,-5.149777978658676147e-03,1.853212714195251465e-02,-7.236479967832565308e-02,-2.580563351511955261e-02,-8.203734457492828369e-02,6.397590786218643188e-02,-5.682070925831794739e-02,8.270916342735290527e-02,-4.958218336105346680e-02,9.129837155342102051e-03,-6.530190259218215942e-02,5.034950003027915955e-02,7.226897776126861572e-02,-1.223011836409568787e-01,1.228491067886352539e-01,-2.588167227804660797e-02,-1.753294654190540314e-02,6.656922399997711182e-03,-4.629143700003623962e-02,-7.918155938386917114e-02,1.357437670230865479e-01,6.460821628570556641e-02,1.354422122240066528e-01,-6.271199882030487061e-02,5.710971355438232422e-02,4.824683070182800293e-02,4.333210526965558529e-04,9.014492854475975037e-03,-6.848632544279098511e-02,-8.803715556859970093e-02,3.089693188667297363e-02,3.192925127223134041e-03,1.098861247301101685e-01,9.065297245979309082e-02,-1.831722445785999298e-02,7.446458935737609863e-02,1.206029132008552551e-01,1.169569417834281921e-01,-5.201022699475288391e-02,-6.575486809015274048e-02,-8.747248351573944092e-02,4.336044937372207642e-02,1.152355223894119263e-01,3.293752670288085938e-02,-1.160756647586822510e-01,-4.194556921720504761e-02,-6.908763945102691650e-02,1.047835648059844971e-01,8.780629932880401611e-02,-1.200828030705451965e-01,-1.243044734001159668e-01,-9.641411900520324707e-02,-1.197884231805801392e-01,-4.867293313145637512e-02,1.122798323631286621e-01,-2.135523967444896698e-02,-9.792313724756240845e-02,7.674070447683334351e-02,8.010587096214294434e-02,-3.033369593322277069e-02,-7.147889584302902222e-02,-2.682286500930786133e-02,-1.166405752301216125e-01,8.650749921798706055e-03,6.400929391384124756e-02,-8.472575806081295013e-03,-7.391431927680969238e-02,-3.044834733009338379e-02,-8.415287733078002930e-02,-1.781748421490192413e-02,-4.236150905489921570e-02,-8.872223645448684692e-02,-4.400790110230445862e-02
-1.641809940338134766e-03,-1.116983592510223389e-01,9.982049465179443359e-03,-6.783008575439453125e-04,-6.124910712242126465e-02,-6.454744935035705566e-02,-3.354066610336303711e-02,1.608616113662719727e-02,4.973807930946350098e-02,-3.795552253723144531e-02,1.366049051284790039e-02,-5.308637022972106934e-02,4.755601286888122559e-02,-1.144612729549407959e-01,8.068931102752685547e-02,4.257926344871520996e-02,-3.244447708129882812e-02,-2.886581420898437500e-02,-2.038097381591796875e-02,8.763280510902404785e-02,3.522962331771850586e-02,9.018692374229431152e-02,-2.474516630172729492e-02,9.352010488510131836e-02,2.564504742622375488e-02,1.223903596401214600e-01,2.723726630210876465e-02,-4.408553242683410645e-02,3.440871834754943848e-02,-1.682335138320922852e-02,-2.788710594177246094e-02,8.060407638549804688e-02,8.183360099792480469e-02,-1.144674420356750488e-01,6.275624036788940430e-02,-1.151808202266693115e-01,-6.473028659820556641e-02,-1.218823194503784180e-01,-9.087565541267395020e-02,-5.595776438713073730e-02,6.588190793991088867e-02,-1.152766942977905273e-01,-1.942378282546997070e-02,-1.967117190361022949e-02,1.696011424064636230e-02,-5.904972553253173828e-02,-1.066271662712097168e-01,4.041600227355957031e-02,-9.006923437118530273e-02,-7.523798942565917969e-02,-2.920997142791748047e-02,4.319036006927490234e-02,7.842609286308288574e-02,4.925534129142761230e-02,-8.707845211029052734e-02,-7.116630673408508301e-02,8.269208669662475586e-02,6.603810191154479980e-02,5.639672279357910156e-02,-8.003526926040649414e-02,-8.493301272392272949e-02,4.641857743263244629e-02,1.228425502777099609e-01,-8.746838569641113281e-02,-4.727259278297424316e-02,-1.080363392829895020e-01,-1.584178209304809570e-02,-2.921080589294433594e-02,5.765375494956970215e-02,-4.403558373451232910e-02,4.346075654029846191e-02,3.139355778694152832e-02,4.400795698165893555e-02,-4.275387525558471680e-02,-2.742084860801696777e-02,6.803348660469055176e-02,-7.712909579277038574e-02,9.881418943405151367e-02,7.251957058906555176e-02,-3.402155637741088867e-02,-9.305471181869506836e-02,5.920001864433288574e-02,9.831362962722778320e-02,5.137532949447631836e-02,-1.023308038711547852e-01,6.438511610031127930e-02,1.762124896049499512e-02,-1.118154525756835938e-01,5.462923645973205566e-02,9.946763515472412109e-03,8.340719342231750488e-02,-1.099032759666442871e-01,1.035107970237731934e-01,-8.326917886734008789e-03,-6.998479366302490234e-03,7.772031426429748535e-02,-5.212894082069396973e-02,-5.289551615715026855e-02,2.981197834014892578e-02,9.756287932395935059e-02,5.291733145713806152e-02,1.087170839309692383e-01,1.199206411838531494e-01,2.605479955673217773e-02,1.123682260513305664e-01,1.563322544097900391e-02,1.037668585777282715e-01,8.161589503288269043e-02,-4.809328913688659668e-02,-1.180916726589202881e-01,-4.099294543266296387e-02,-4.771786928176879883e-02,-1.189969480037689209e-01,1.120088398456573486e-01,4.382669925689697266e-02,-1.145958900451660156e-02,-6.975856423377990723e-02,1.442667841911315918e-02,-5.631521344184875488e-02,-1.076466441154479980e-01,4.261890053749084473e-02,-1.185134649276733398e-01,5.757018923759460449e-02,-1.119134128093719482e-01,1.066588163375854492e-01,-8.839666843414306641e-04,-6.225273013114929199e-02,5.136871337890625000e-02
-1.053245291113853455e-01,-1.004985272884368896e-01,9.629902243614196777e-02,-7.868293672800064087e-02,1.226794123649597168e-01,-8.933061361312866211e-02,1.943477988243103027e-02,-6.454047560691833496e-02,-1.988073624670505524e-02,7.915993779897689819e-02,4.290520772337913513e-02,-7.595528848469257355e-03,-6.965244188904762268e-03,1.248245686292648315e-02,-9.507659822702407837e-02,2.349493280053138733e-02,3.928297385573387146e-02,-9.781499207019805908e-02,6.350513547658920288e-02,-4.786853864789009094e-02,1.204732432961463928e-01,-3.787283599376678467e-02,3.972152620553970337e-02,-6.055721547454595566e-03,-1.048204973340034485e-01,-3.442253172397613525e-02,-1.212744787335395813e-01,1.066276729106903076e-01,-8.074890822172164917e-02,-1.220452040433883667e-01,4.651586338877677917e-02,8.909293450415134430e-03,-1.123418435454368591e-01,3.094758465886116028e-02,4.048915579915046692e-02,1.038929373025894165e-01,4.533630982041358948e-02,4.295596480369567871e-02,-4.542567953467369080e-02,-5.619639530777931213e-02,-7.106611132621765137e-02,6.524848937988281250e-02,2.335746400058269501e-02,9.304490685462951660e-02,7.151139527559280396e-02,-1.028933078050613403e-01,6.656937301158905029e-03,1.241786032915115356e-01,-7.796730101108551025e-02,-1.854189299046993256e-02,-1.115478351712226868e-01,-1.525372918695211411e-02,7.971191778779029846e-03,1.215600520372390747e-01,1.178196668624877930e-01,-2.445289865136146545e-02,1.142478957772254944e-01,1.247575040906667709e-03,-1.422387212514877319e-01,7.818355411291122437e-02,-2.767031453549861908e-02,1.193582192063331604e-01,6.606156378984451294e-02,-1.210106760263442993e-01,1.556360349059104919e-02,1.289728134870529175e-01,7.634455803781747818e-03,-8.239524811506271362e-02,-9.244836866855621338e-02,-1.502755098044872284e-02,-7.109855860471725464e-02,-8.875615149736404419e-02,2.470613084733486176e-02,1.233103424310684204e-01,-8.617463707923889160e-02,9.949523210525512695e-02,1.593025028705596924e-02,3.744587302207946777e-02,2.289579436182975769e-02,1.215101853013038635e-01,3.822581470012664795e-02,1.249145418405532837e-01,5.141229182481765747e-02,1.202849522233009338e-01,9.798830747604370117e-02,-7.448631525039672852e-02,-4.525664076209068298e-02,-1.030000820755958557e-01,1.187776327133178711e-01,2.523405663669109344e-02,-9.103049337863922119e-02,-7.138167321681976318e-02,1.031369715929031372e-02,5.802340433001518250e-02,5.580761283636093140e-02,1.243865340948104858e-01,-1.389238089323043823e-01,-7.809712737798690796e-02,-1.179092004895210266e-02,-8.514457941055297852e-02,-1.226590573787689209e-01,1.055401340126991272e-01,9.495473653078079224e-02,8.120599389076232910e-02,9.443295001983642578e-02,4.493958875536918640e-02,-4.361649230122566223e-02,2.563909627497196198e-02,-1.042736545205116272e-01,1.128850206732749939e-01,-1.495067961513996124e-02,8.530414104461669922e-02,9.872798621654510498e-02,3.250669315457344055e-02,2.879735827445983887e-02,-3.463489934802055359e-02,4.894098639488220215e-02,1.161636486649513245e-01,9.875258803367614746e-02,-8.978274464607238770e-02,-8.346854150295257568e-02,1.042608320713043213e-01,4.037553071975708008e-02,-1.164811290800571442e-02,3.540157899260520935e-02,-6.967016309499740601e-02,-3.007202968001365662e-02,-3.545700013637542725e-02
-1.046891789883375168e-02,6.010232120752334595e-02,-5.244252830743789673e-02,-2.080777660012245178e-02,-7.488436996936798096e-03,9.903191588819026947e-03,-2.975635603070259094e-02,5.440971255302429199e-02,-9.959051758050918579e-02,1.141290366649627686e-01,2.489013411104679108e-02,-3.434762358665466309e-02,-3.396202251315116882e-02,-1.427860110998153687e-01,4.694846272468566895e-02,-1.237381771206855774e-01,1.125693991780281067e-01,3.822214435786008835e-03,1.088198274374008179e-01,-1.173530966043472290e-01,-8.956167846918106079e-02,-1.141568869352340698e-01,-3.948348388075828552e-02,1.653670519590377808e-02,9.461040049791336060e-02,-1.087470501661300659e-01,3.541821241378784180e-02,-2.503186650574207306e-02,-2.003801427781581879e-02,-9.179722517728805542e-02,1.217583119869232178e-01,3.655071184039115906e-02,1.529939286410808563e-02,-5.749038979411125183e-02,9.198268875479698181e-03,-7.133729755878448486e-02,1.042740233242511749e-02,1.188236847519874573e-01,-4.073640157002955675e-04,8.775760978460311890e-02,-2.200696431100368500e-02,-9.561374038457870483e-02,-6.876746565103530884e-02,-4.700167477130889893e-02,-7.312546670436859131e-02,-6.912472099065780640e-02,6.812115013599395752e-02,2.572506293654441833e-02,-1.929438114166259766e-02,6.866266578435897827e-02,-1.141597703099250793e-01,-2.625914663076400757e-02,-8.109518140554428101e-02,6.071877852082252502e-02,6.166719645261764526e-02,4.334099963307380676e-02,-1.114635393023490906e-01,6.369977444410324097e-02,6.385975331068038940e-02,1.090561822056770325e-01,-5.826227366924285889e-02,1.147231459617614746e-01,-1.982282102108001709e-02,9.942027181386947632e-02,9.253717213869094849e-02,9.837235510349273682e-02,3.549618273973464966e-02,-1.171320825815200806e-01,1.130396053194999695e-01,9.393871575593948364e-02,2.524786163121461868e-03,-1.194457486271858215e-01,1.065299063920974731e-01,-8.245045691728591919e-02,9.471377730369567871e-02,8.351465314626693726e-02,4.170535877346992493e-02,4.353350773453712463e-02,-2.248010784387588501e-02,-8.439151942729949951e-02,7.435128837823867798e-02,-1.065952479839324951e-01,1.006950661540031433e-01,1.130493059754371643e-01,-3.082807175815105438e-02,8.967679738998413086e-02,1.090801209211349487e-01,8.879739046096801758e-02,1.090077087283134460e-01,-3.207784146070480347e-02,-2.991074323654174805e-02,-1.066134199500083923e-01,-1.062519103288650513e-01,2.690888755023479462e-02,-4.920380190014839172e-02,-3.527221828699111938e-02,3.379399701952934265e-02,-1.937631517648696899e-02,9.568576514720916748e-02,1.922211050987243652e-02,-3.166337963193655014e-03,4.004031792283058167e-02,4.499389231204986572e-02,1.989702694118022919e-02,1.934520713984966278e-02,3.072391450405120850e-02,1.249266266822814941e-01,1.140250489115715027e-01,-9.430772066116333008e-02,-5.040417239069938660e-02,1.538183633238077164e-02,7.537869364023208618e-02,8.645772188901901245e-02,4.100409895181655884e-02,1.155563071370124817e-01,-1.144143342971801758e-01,-1.047318130731582642e-01,-1.500371657311916351e-02,-4.601576924324035645e-02,-1.198506653308868408e-01,9.660648554563522339e-02,-1.881778240203857422e-03,5.493137240409851074e-02,7.583741098642349243e-02,3.919074311852455139e-02,-9.268925525248050690e-03,-1.196855977177619934e-01,-3.815770847722887993e-03
2.089694514870643616e-02,-1.283456478267908096e-02,1.090243607759475708e-01,-4.627177491784095764e-02,1.019359230995178223e-01,3.250978142023086548e-02,-1.130375042557716370e-01,7.876107096672058105e-02,5.940816551446914673e-02,2.791302511468529701e-03,7.156458497047424316e-02,9.837520867586135864e-02,1.226941868662834167e-02,-4.128899425268173218e-02,-7.454023510217666626e-02,7.235778123140335083e-02,7.013729214668273926e-02,-3.533789515495300293e-02,1.188231781125068665e-01,-3.676206246018409729e-02,-1.091152206063270569e-01,1.140357106924057007e-01,4.442990943789482117e-02,-4.680496826767921448e-02,1.129069477319717407e-01,-9.563099592924118042e-03,-5.560242012143135071e-02,-1.204544305801391602e-01,8.045966923236846924e-02,1.238692775368690491e-01,-6.348930299282073975e-02,-8.997047692537307739e-02,-5.285254865884780884e-02,6.821098923683166504e-02,1.413718890398740768e-02,-1.405030637979507446e-01,8.809620887041091919e-02,1.213064491748809814e-01,6.641623377799987793e-02,-1.091078296303749084e-01,-4.143982753157615662e-02,9.426283091306686401e-02,-8.059035241603851318e-02,7.710032910108566284e-02,5.498978868126869202e-02,-1.138361869379878044e-03,-7.020786404609680176e-02,-9.089116007089614868e-02,5.220417398959398270e-03,-4.922496527433395386e-02,-1.125186756253242493e-01,2.368425205349922180e-02,1.174918264150619507e-01,-1.483619306236505508e-02,6.375776231288909912e-02,4.258320853114128113e-02,9.794243425130844116e-02,7.049502432346343994e-02,6.869337707757949829e-02,-1.131564229726791382e-01,-7.672312855720520020e-02,1.071305423974990845e-01,-2.125844359397888184e-02,1.843649707734584808e-02,4.977372288703918457e-02,8.464504033327102661e-02,4.325352236628532410e-02,-1.001121699810028076e-01,5.274241417646408081e-02,8.770203217864036560e-03,7.433200627565383911e-02,-8.238623291254043579e-02,-6.724241189658641815e-03,-3.850121796131134033e-02,2.961313538253307343e-02,1.092250347137451172e-01,-3.829034417867660522e-02,-6.046413630247116089e-02,1.186122745275497437e-01,-1.109135821461677551e-01,-5.777227133512496948e-02,-9.731609374284744263e-02,-1.537482440471649170e-02,8.164519071578979492e-02,-1.038967519998550415e-01,7.168212532997131348e-02,-5.117094144225120544e-02,6.195806339383125305e-02,-7.912417501211166382e-02,2.297127805650234222e-02,-7.464309036731719971e-02,-5.537500232458114624e-02,-1.173824593424797058e-01,-9.784960001707077026e-02,7.714204490184783936e-03,5.207887734286487103e-04,6.805568002164363861e-03,-4.532944038510322571e-02,-1.138676628470420837e-01,-1.036760210990905762e-01,-8.489579707384109497e-02,7.228181511163711548e-02,5.374429747462272644e-02,-6.854749470949172974e-02,-1.226872876286506653e-01,1.143147647380828857e-01,-9.143524616956710815e-02,-6.469245254993438721e-02,7.999719679355621338e-02,9.603752195835113525e-02,-8.884674310684204102e-02,2.912703901529312134e-02,8.596850186586380005e-02,3.743350878357887268e-02,9.463663399219512939e-02,1.139436513185501099e-01,-3.008282557129859924e-02,-1.163693517446517944e-01,2.219370007514953613e-02,-5.912822205573320389e-03,-1.127054914832115173e-02,-8.701431751251220703e-02,9.715509414672851562e-02,7.777415961027145386e-02,-7.190212607383728027e-02,-4.199433326721191406e-02,-1.052282005548477173e-01,2.992933057248592377e-02
1.556787453591823578e-02,-3.251195326447486877e-02,-1.222965121269226074e-01,-6.031984835863113403e-02,1.486915629357099533e-02,-6.528979539871215820e-02,-6.846351083368062973e-03,-6.420823931694030762e-02,3.899491950869560242e-02,1.022742465138435364e-01,1.154364645481109619e-02,-9.663709998130798340e-02,-8.895750343799591064e-02,-1.183682531118392944e-01,-4.878295585513114929e-02,-7.025957107543945312e-02,4.344899673014879227e-03,-5.712470412254333496e-02,8.065731823444366455e-02,8.778530359268188477e-02,9.028450399637222290e-02,-5.740225315093994141e-03,4.447321966290473938e-02,1.360935904085636139e-02,3.336383402347564697e-02,-1.095983609557151794e-01,1.201165840029716492e-01,1.024479717016220093e-01,4.603375494480133057e-02,-6.291002780199050903e-02,-1.192011684179306030e-01,-2.446425519883632660e-02,3.690921887755393982e-02,3.565111383795738220e-02,-1.190886497497558594e-01,3.406272735446691513e-03,2.249831892549991608e-02,-1.333835273981094360e-01,-2.910939231514930725e-02,5.555069446563720703e-02,3.979762643575668335e-02,7.892271131277084351e-02,-1.494014519266784191e-03,8.881704509258270264e-02,-4.041548445820808411e-02,2.573434263467788696e-02,1.935263536870479584e-02,-1.785630919039249420e-02,-9.106045216321945190e-02,1.427015941590070724e-02,-9.880886971950531006e-02,1.586421020328998566e-02,-2.762630581855773926e-02,5.035032704472541809e-02,-3.008613549172878265e-02,-4.337681457400321960e-02,-5.030339956283569336e-02,-5.999157205224037170e-02,7.122200727462768555e-02,-8.384173363447189331e-02,-1.180004402995109558e-01,-1.169731691479682922e-01,-2.209081314504146576e-02,-8.339266479015350342e-02,-4.889887943863868713e-02,7.905777543783187866e-02,-8.130072802305221558e-02,8.777458220720291138e-02,-1.185099035501480103e-01,3.881260007619857788e-02,9.672944992780685425e-02,-2.557796239852905273e-02,5.545048788189888000e-02,-5.731820594519376755e-03,3.150137141346931458e-02,1.077695637941360474e-01,-4.266570135951042175e-02,-4.382101818919181824e-03,3.779188171029090881e-02,-3.872404247522354126e-02,1.035330742597579956e-01,-2.723097614943981171e-02,1.013596728444099426e-01,4.611095413565635681e-02,4.847921803593635559e-02,9.949761629104614258e-02,7.277791947126388550e-02,-1.107992306351661682e-01,8.343668282032012939e-02,3.879031911492347717e-02,-4.226848948746919632e-03,7.760969549417495728e-02,-8.099028468132019043e-02,-8.320214226841926575e-03,3.810851275920867920e-02,7.467342168092727661e-02,-7.232479006052017212e-02,-5.151829216629266739e-03,-1.174660399556159973e-01,1.392573118209838867e-03,4.705651849508285522e-02,-2.566642500460147858e-02,-2.742340788245201111e-02,-1.756045967340469360e-02,8.388906717300415039e-02,4.813685268163681030e-02,1.069846749305725098e-01,-9.030144661664962769e-02,5.432755686342716217e-03,-2.381441183388233185e-02,-2.220121584832668304e-02,-9.815070033073425293e-02,3.105937503278255463e-02,-3.904170915484428406e-02,-1.136403009295463562e-01,9.230102598667144775e-02,-8.066860027611255646e-03,1.436687819659709930e-02,3.962570428848266602e-02,6.223666667938232422e-02,-1.004998832941055298e-01,1.060447096824645996e-02,-6.641447544097900391e-02,-1.266929656267166138e-01,-5.545470491051673889e-02,7.165908068418502808e-02,-6.547459959983825684e-02,-1.004133094102144241e-02
1.421632710844278336e-03,4.915088042616844177e-02,-9.857678413391113281e-02,8.652636408805847168e-02,1.197462528944015503e-01,-5.809188261628150940e-02,1.810595206916332245e-02,-1.019376516342163086e-02,-8.088979870080947876e-02,-5.907366797327995300e-02,6.212385743856430054e-02,-3.681938722729682922e-02,3.708670288324356079e-02,-1.107550933957099915e-01,-4.886560887098312378e-02,4.615036770701408386e-02,-8.030355721712112427e-02,1.212856918573379517e-01,-8.420717902481555939e-03,2.756063360720872879e-03,2.826055511832237244e-02,9.276646375656127930e-02,-1.184625402092933655e-01,1.101548224687576294e-01,-1.099888514727354050e-02,4.583343863487243652e-02,6.859552860260009766e-02,-1.225718762725591660e-02,1.175656244158744812e-01,-1.887882873415946960e-02,-7.717727869749069214e-02,-6.312945485115051270e-02,-2.836275845766067505e-02,-9.044970571994781494e-02,9.949384629726409912e-02,-8.832781761884689331e-02,5.297533795237541199e-02,-7.691100239753723145e-02,-1.828121580183506012e-02,6.152682751417160034e-02,-1.910434663295745850e-02,-5.391863361001014709e-02,3.053544205613434315e-04,-1.277640461921691895e-02,9.266077727079391479e-02,-5.501714721322059631e-02,-8.882520347833633423e-02,-3.344252705574035645e-02,-8.655659109354019165e-02,-8.544882386922836304e-02,9.733415395021438599e-02,-6.525851041078567505e-02,8.888390660285949707e-02,9.758187457919120789e-03,-1.736249891109764576e-03,8.256544917821884155e-02,8.506660163402557373e-02,9.416197985410690308e-02,-5.320908129215240479e-02,6.349986791610717773e-02,1.203120201826095581e-01,9.987582266330718994e-02,9.876846522092819214e-02,-5.176544189453125000e-02,-1.053747236728668213e-01,-2.151009626686573029e-02,6.464520841836929321e-02,6.986395269632339478e-02,4.379484057426452637e-02,-1.189704313874244690e-01,2.557791396975517273e-02,-3.792444616556167603e-02,-1.660542376339435577e-02,-3.051657229661941528e-02,-9.904262423515319824e-02,-1.086057499051094055e-01,2.948453836143016815e-02,2.635052613914012909e-02,-7.953827083110809326e-02,-7.156407088041305542e-02,7.166290283203125000e-02,3.068134561181068420e-02,1.008793711662292480e-01,1.214894279837608337e-01,4.067134484648704529e-02,-4.180067777633666992e-02,6.129755824804306030e-02,-3.538399934768676758e-02,9.136050939559936523e-03,2.258753217756748199e-02,6.179896369576454163e-02,-1.195583045482635498e-01,-1.182092279195785522e-01,-3.426597639918327332e-02,-7.909585535526275635e-02,8.107484877109527588e-02,6.357231736183166504e-02,-6.922519952058792114e-02,8.844134956598281860e-02,-4.201740026473999023e-03,1.227532252669334412e-01,9.057069569826126099e-02,4.027479793876409531e-03,5.167272314429283142e-02,-6.927150487899780273e-02,8.425053209066390991e-02,-8.418505638837814331e-02,4.746814072132110596e-02,8.178330212831497192e-02,6.446931511163711548e-02,6.770648062229156494e-03,3.315177559852600098e-02,1.043466180562973022e-01,-1.261562258005142212e-01,1.158492490649223328e-01,-7.222550362348556519e-02,-1.033264398574829102e-01,1.497645117342472076e-02,-1.577681303024291992e-02,-3.959358483552932739e-02,5.026118457317352295e-02,1.113218069076538086e-02,-8.187606930732727051e-02,-8.395873755216598511e-02,5.133223533630371094e-02,-1.169597730040550232e-01,1.247154176235198975e-02,4.412287473678588867e-02
-1.068603545427322388e-01,-7.713613659143447876e-02,-9.489056468009948730e-02,6.715147942304611206e-02,-4.348855093121528625e-02,5.838837474584579468e-02,-1.095036044716835022e-01,-3.785464167594909668e-02,9.776373952627182007e-02,3.982339799404144287e-02,1.322642900049686432e-02,-5.185723677277565002e-02,9.235318750143051147e-02,-7.900023460388183594e-02,6.859309971332550049e-02,-1.070381999015808105e-01,1.433930592611432076e-03,7.065106928348541260e-02,-8.403778821229934692e-02,-6.022869795560836792e-02,1.098179966211318970e-01,-1.199223324656486511e-01,-2.506809495389461517e-02,-5.253314599394798279e-02,-5.784353241324424744e-02,-1.181700155138969421e-01,-1.788692921400070190e-02,4.596303403377532959e-02,-9.448831528425216675e-02,-1.172169595956802368e-01,-8.668041229248046875e-02,-6.840175390243530273e-02,1.055627912282943726e-01,-6.795389950275421143e-02,7.252555340528488159e-02,8.683788776397705078e-02,4.666455835103988647e-02,7.761314511299133301e-02,-5.502592772245407104e-02,1.127973794937133789e-01,2.098422311246395111e-02,8.397103101015090942e-02,1.182549744844436646e-01,4.779998585581779480e-02,-2.788656577467918396e-02,-9.658107906579971313e-02,1.007770225405693054e-01,8.343769609928131104e-02,7.543469965457916260e-02,8.412465453147888184e-03,-8.123183995485305786e-02,-1.049071624875068665e-01,-2.133239991962909698e-03,-7.536633312702178955e-02,-6.541687995195388794e-02,4.644206166267395020e-02,6.722005456686019897e-02,4.607001319527626038e-02,-8.819196373224258423e-02,-3.229126706719398499e-02,5.619420483708381653e-02,1.500823441892862320e-02,8.890578150749206543e-02,-8.222995698451995850e-02,1.085470020771026611e-01,-1.114249601960182190e-01,-4.184012301266193390e-03,-3.740927949547767639e-02,-1.055471450090408325e-01,-1.738977059721946716e-02,7.061024010181427002e-02,3.238705918192863464e-02,-6.426743417978286743e-02,-8.951391279697418213e-02,5.153246596455574036e-02,6.217323616147041321e-02,6.555390357971191406e-02,4.271578416228294373e-02,-4.991417005658149719e-02,-9.128733538091182709e-03,1.665160804986953735e-02,1.215431652963161469e-02,-4.129150882363319397e-02,8.418193459510803223e-02,-6.339831650257110596e-02,5.400356650352478027e-02,-1.568862423300743103e-02,6.373401731252670288e-02,-7.893224805593490601e-02,2.512868680059909821e-02,-6.851113587617874146e-02,-9.228124469518661499e-02,3.004219196736812592e-02,-1.265150755643844604e-01,1.776514947414398193e-02,3.713792935013771057e-02,1.203856095671653748e-01,8.162212371826171875e-02,6.073091644793748856e-03,4.454624652862548828e-02,-5.924497544765472412e-02,-1.055191457271575928e-01,-1.310544908046722412e-01,-2.253048680722713470e-02,2.172384783625602722e-02,-4.413056373596191406e-02,-6.917904317378997803e-02,1.160571724176406860e-01,2.404549717903137207e-02,2.623360231518745422e-02,-1.041872613131999969e-02,-9.775111079216003418e-02,1.931630820035934448e-02,-2.822229266166687012e-02,-5.732757598161697388e-02,4.101188108325004578e-02,-1.210874021053314209e-01,9.799403697252273560e-02,7.549864053726196289e-02,-3.641096875071525574e-02,-2.383608929812908173e-02,9.285920858383178711e-02,3.397953510284423828e-02,-6.033994723111391068e-03,1.671406067907810211e-02,-6.122065335512161255e-02,4.513353854417800903e-02,1.068904921412467957e-01
1.188000198453664780e-02,9.856402128934860229e-02,4.802621528506278992e-02,7.685848395340144634e-04,7.477185875177383423e-02,9.783082455396652222e-02,-2.813863195478916168e-02,-4.505723714828491211e-03,-9.934784471988677979e-02,-1.062828395515680313e-02,5.807736515998840332e-02,-1.246121451258659363e-01,-4.870699346065521240e-02,3.049004636704921722e-02,4.149237647652626038e-02,-3.120331838726997375e-02,-6.824297457933425903e-02,-8.694991469383239746e-03,-3.227733075618743896e-02,-1.014038994908332825e-01,7.700383663177490234e-02,-5.687975883483886719e-02,7.320327311754226685e-02,-8.048805594444274902e-02,-2.217749506235122681e-02,4.714585468173027039e-02,-7.135555893182754517e-02,-7.066714763641357422e-02,8.111837506294250488e-02,-9.486632794141769409e-02,-4.983331635594367981e-02,1.267029047012329102e-01,2.017971128225326538e-02,2.572104893624782562e-02,1.008732169866561890e-01,-1.189257055521011353e-01,3.700234368443489075e-02,4.214178398251533508e-02,1.212785989046096802e-01,3.954536095261573792e-02,2.199451904743909836e-03,-9.396245330572128296e-02,-1.150711253285408020e-01,1.673896098509430885e-03,1.042701750993728638e-01,3.217384219169616699e-02,-2.938976883888244629e-02,3.442721813917160034e-02,9.494084864854812622e-02,-8.608070760965347290e-02,4.342010989785194397e-02,-8.818448334932327271e-02,2.085356786847114563e-02,-6.842259317636489868e-02,-4.079182818531990051e-02,-6.958703696727752686e-02,-8.095876313745975494e-03,2.359661832451820374e-02,7.696660608053207397e-02,2.895317226648330688e-02,-2.287596464157104492e-02,-4.361086711287498474e-02,-1.307804137468338013e-01,3.469060361385345459e-02,9.820991754531860352e-02,4.171087592840194702e-02,1.102738827466964722e-02,1.157840117812156677e-01,1.214018240571022034e-01,-4.920298606157302856e-02,-3.437864035367965698e-02,6.290382146835327148e-02,-8.571689575910568237e-02,-2.721942495554685593e-03,2.722924761474132538e-02,1.175362393260002136e-01,7.100267335772514343e-03,-8.087290823459625244e-02,5.524240434169769287e-02,5.572550743818283081e-02,-6.091174483299255371e-02,-2.749963849782943726e-02,2.081415057182312012e-02,7.756387442350387573e-02,-1.944132521748542786e-02,-8.992052078247070312e-02,-2.329943142831325531e-02,-1.203822419047355652e-01,4.087537527084350586e-03,2.215190976858139038e-02,-1.053273603320121765e-01,5.045303702354431152e-02,-3.281900659203529358e-02,-8.430277556180953979e-02,-6.011966615915298462e-02,-3.233443945646286011e-02,9.652417898178100586e-02,-1.018711132928729057e-03,4.119631275534629822e-02,-7.688671350479125977e-02,1.060990691184997559e-01,-8.739362657070159912e-02,-2.276700362563133240e-02,-7.366177439689636230e-02,-5.776993930339813232e-02,8.971463143825531006e-02,-2.778661996126174927e-02,1.131027862429618835e-01,-1.012151837348937988e-01,-2.005497552454471588e-02,-1.022276654839515686e-01,9.015533723868429661e-04,-1.232020854949951172e-01,9.269057214260101318e-02,1.165230497717857361e-01,6.800811737775802612e-02,1.449476554989814758e-02,-1.608818396925926208e-02,4.304289817810058594e-02,-5.943563953042030334e-02,9.518272429704666138e-02,-1.034436225891113281e-01,5.194067955017089844e-03,3.708800359163433313e-04,1.163558363914489746e-01,-1.222228035330772400e-01,1.052009910345077515e-01,-9.868441149592399597e-03
-8.833426237106323242e-02,6.313018500804901123e-02,2.657172270119190216e-02,-3.395050764083862305e-02,7.219274342060089111e-02,5.700628738850355148e-03,-4.449521750211715698e-02,-8.968472480773925781e-02,3.033808432519435883e-02,-6.525057554244995117e-02,-2.073999866843223572e-02,-1.076745092868804932e-01,1.148780062794685364e-01,1.200151890516281128e-01,-1.178034767508506775e-01,1.071800142526626587e-01,7.015784829854965210e-02,7.663922011852264404e-02,6.835284084081649780e-02,-1.048968061804771423e-01,6.477060262113809586e-03,1.350462436676025391e-03,-4.557680711150169373e-02,7.751252502202987671e-02,6.805513054132461548e-02,1.104656979441642761e-01,-5.205799639225006104e-02,-1.195984035730361938e-01,-1.013266593217849731e-01,-1.725485175848007202e-02,-3.631797432899475098e-02,1.234646961092948914e-01,5.987378954887390137e-02,1.133814826607704163e-01,8.825258165597915649e-02,-3.815332800149917603e-02,-7.409319281578063965e-02,-1.571260020136833191e-02,-9.224669635295867920e-02,-2.541878819465637207e-02,-7.769743353128433228e-02,-7.661279290914535522e-02,1.180955618619918823e-01,-6.445568799972534180e-02,3.291464224457740784e-02,-1.262836456298828125e-01,9.503453224897384644e-02,1.010741293430328369e-01,-1.256761103868484497e-01,6.050557829439640045e-03,-1.013089194893836975e-01,5.257440730929374695e-02,3.675917163491249084e-02,5.065063387155532837e-02,4.246787354350090027e-02,9.097275882959365845e-02,6.000273674726486206e-02,-8.498217165470123291e-02,-5.759737268090248108e-02,-1.043755114078521729e-01,-5.872913822531700134e-02,1.072662323713302612e-01,6.729554384946823120e-02,1.223856508731842041e-01,-2.055320888757705688e-02,-1.079618483781814575e-01,8.943697810173034668e-02,-8.647995442152023315e-02,-8.404231071472167969e-02,-6.633470952510833740e-02,2.535444684326648712e-03,1.196655631065368652e-01,1.753907534293830395e-03,-2.623866498470306396e-02,-7.751075923442840576e-02,-1.230523511767387390e-01,1.384101249277591705e-02,1.088533625006675720e-01,9.333205223083496094e-02,-1.416277512907981873e-02,-7.661476731300354004e-02,-5.909640341997146606e-02,6.783229112625122070e-02,-5.289802700281143188e-02,-8.525062352418899536e-02,1.908493041992187500e-02,-4.960787668824195862e-02,-6.077473610639572144e-02,5.858163535594940186e-02,-1.066431477665901184e-01,-1.465632929466664791e-03,-1.042025163769721985e-01,-2.090688608586788177e-02,-2.205703221261501312e-02,9.288283437490463257e-02,-2.556490153074264526e-02,9.436098486185073853e-02,5.059529095888137817e-02,-7.339265197515487671e-02,-1.906725764274597168e-02,1.133895218372344971e-01,3.799760714173316956e-02,-1.143315620720386505e-02,-2.065399102866649628e-02,-6.536808609962463379e-02,-7.335006445646286011e-02,-5.110335722565650940e-02,-6.304176151752471924e-02,-1.237306296825408936e-01,-1.269685477018356323e-01,2.198535017669200897e-03,8.232229202985763550e-02,-7.823118567466735840e-02,5.975243449211120605e-02,-9.853681921958923340e-02,1.107059791684150696e-01,5.684423446655273438e-02,-7.384484261274337769e-02,6.655082106590270996e-02,-1.215944290161132812e-01,3.607750684022903442e-02,-3.652414679527282715e-02,1.923599839210510254e-02,1.279407441616058350e-01,2.163317613303661346e-02,-2.708968333899974823e-02,7.250326871871948242e-02,-5.569158494472503662e-02
-4.489933699369430542e-02,6.738546490669250488e-02,3.683380037546157837e-02,6.358845531940460205e-02,2.127747610211372375e-02,-8.630463480949401855e-02,-9.772922843694686890e-02,-1.767131686210632324e-02,1.120533943176269531e-01,1.573428139090538025e-02,5.601206049323081970e-02,5.093410238623619080e-02,-6.767455488443374634e-02,8.797803521156311035e-02,-2.611119067296385765e-03,-1.007381547242403030e-02,1.183964759111404419e-01,-5.974809825420379639e-02,1.197617799043655396e-01,-4.715397208929061890e-02,-1.024575009942054749e-01,1.149907261133193970e-01,8.291941881179809570e-02,9.780336171388626099e-02,7.534244656562805176e-02,-7.605776935815811157e-02,-3.306303545832633972e-02,-1.511215418577194214e-02,9.933099150657653809e-02,-1.809871383011341095e-02,-5.623346567153930664e-02,-4.794004932045936584e-02,7.980452477931976318e-02,9.906049072742462158e-02,9.366024285554885864e-02,-9.941776841878890991e-02,-2.143561281263828278e-02,5.018085613846778870e-02,-2.263020537793636322e-02,8.935516700148582458e-03,1.069735884666442871e-01,2.618639357388019562e-02,9.501812607049942017e-02,-4.323277622461318970e-02,5.438919737935066223e-02,-1.086961701512336731e-01,1.618261635303497314e-02,2.948511764407157898e-02,1.334518566727638245e-02,-1.189208938740193844e-03,-4.421934485435485840e-02,2.159078791737556458e-02,-9.418062865734100342e-02,1.063247695565223694e-01,-6.837364286184310913e-02,-9.771563857793807983e-02,1.642436534166336060e-02,8.050787448883056641e-02,-4.001262038946151733e-02,-1.144480854272842407e-01,1.070944741368293762e-01,-1.191380340605974197e-02,-1.203229650855064392e-01,-1.012017577886581421e-01,-6.617986410856246948e-02,8.209557831287384033e-02,1.160598546266555786e-01,-4.789513349533081055e-02,1.190446466207504272e-01,-7.758445292711257935e-02,1.265442222356796265e-01,4.977254569530487061e-02,-9.318917244672775269e-02,7.891654968261718750e-02,7.143930345773696899e-02,-5.824988707900047302e-02,-8.214037120342254639e-02,1.161426901817321777e-01,-1.208304762840270996e-01,-5.205382034182548523e-02,6.443942338228225708e-02,3.550423076376318932e-03,-5.456265434622764587e-02,1.272012293338775635e-02,-1.257332116365432739e-01,9.021803736686706543e-02,4.006693884730339050e-02,-3.034266270697116852e-02,-7.922779768705368042e-02,3.254482522606849670e-02,4.615614190697669983e-02,-9.810692816972732544e-02,5.595595110207796097e-03,8.374570868909358978e-03,1.091785952448844910e-01,1.128778085112571716e-01,1.328812688589096069e-01,-1.269559413194656372e-01,6.442291289567947388e-02,-1.020419001579284668e-01,2.899792976677417755e-02,-3.489557281136512756e-02,2.111096866428852081e-03,9.278211742639541626e-02,1.004835441708564758e-01,-5.920841172337532043e-02,-5.528975278139114380e-02,2.592516690492630005e-02,4.217756912112236023e-03,2.084829472005367279e-02,7.869083434343338013e-02,-1.132300496101379395e-01,-2.217599377036094666e-02,7.228242605924606323e-02,-7.049217075109481812e-02,9.259284287691116333e-02,-1.233750432729721069e-01,-9.785502403974533081e-02,-3.083679080009460449e-02,7.591407001018524170e-02,-4.532153904438018799e-02,-3.205627202987670898e-02,1.343047618865966797e-02,5.095349252223968506e-02,1.186950504779815674e-01,2.582855895161628723e-02,-1.048826277256011963e-01,-2.662793733179569244e-02
4.431010782718658447e-02,-1.097771525382995605e-01,1.003819406032562256e-01,8.825220167636871338e-03,-6.065271794795989990e-02,-6.448722444474697113e-03,8.964142203330993652e-02,2.700436115264892578e-02,-3.953944146633148193e-02,5.952592194080352783e-02,6.398706883192062378e-02,7.836126536130905151e-02,3.602834790945053101e-02,9.630763530731201172e-02,5.486775562167167664e-02,7.206170260906219482e-02,4.251770209521055222e-03,-5.897218734025955200e-02,5.366811156272888184e-02,2.317116409540176392e-02,1.013142317533493042e-01,-7.798940688371658325e-02,-1.166079267859458923e-01,-1.233560740947723389e-01,8.656603097915649414e-02,8.135581016540527344e-02,3.710949793457984924e-02,9.421805851161479950e-03,5.887843668460845947e-02,-7.367993891239166260e-02,1.074864938855171204e-01,3.746451064944267273e-02,-1.025733873248100281e-01,1.089392006397247314e-01,5.707205738872289658e-03,-5.369582027196884155e-02,5.173663049936294556e-02,-8.555752784013748169e-02,-1.019849330186843872e-01,9.536644816398620605e-02,-6.771016865968704224e-02,-6.891371309757232666e-02,2.040087478235363960e-03,6.233477219939231873e-02,1.012676954269409180e-01,-3.431972581893205643e-03,-8.646278874948620796e-04,-7.808637805283069611e-03,-6.243827193975448608e-02,4.519845917820930481e-02,-9.111414849758148193e-02,-1.247194781899452209e-01,8.209680020809173584e-02,2.405553497374057770e-02,-4.620385542511940002e-02,-1.272878348827362061e-01,4.859835840761661530e-03,2.429130673408508301e-02,-1.250284761190414429e-01,-1.154861748218536377e-01,-1.556258555501699448e-02,2.065128879621624947e-03,2.948548272252082825e-02,4.809107165783643723e-03,-8.872315287590026855e-03,-1.947507448494434357e-02,6.262665241956710815e-02,-6.931459158658981323e-02,6.210612505674362183e-02,6.462803483009338379e-02,3.843976557254791260e-02,7.790699135512113571e-03,1.024206206202507019e-01,-2.812461927533149719e-02,7.804215699434280396e-02,-4.232329130172729492e-02,-2.286277525126934052e-02,4.465644713491201401e-03,5.365244671702384949e-02,9.221319109201431274e-02,-1.219174861907958984e-01,-5.893372744321823120e-02,8.483809977769851685e-02,-7.109767943620681763e-02,-6.936512887477874756e-02,-7.987296581268310547e-02,8.292773365974426270e-02,-5.908266082406044006e-02,8.031830191612243652e-02,6.938307732343673706e-02,7.424725592136383057e-02,1.897196471691131592e-02,-1.181742325425148010e-01,-4.423933103680610657e-02,2.149676345288753510e-02,-8.160010725259780884e-02,3.935653343796730042e-02,4.740997776389122009e-02,-2.131701447069644928e-02,-6.773555278778076172e-02,-2.010780945420265198e-02,1.022231504321098328e-01,-1.653593033552169800e-02,-2.810358442366123199e-02,3.625817596912384033e-02,3.330330550670623779e-02,4.848758131265640259e-02,-3.908409737050533295e-03,6.050942093133926392e-02,-7.910035550594329834e-02,-4.637968540191650391e-02,-1.180806085467338562e-01,3.894891217350959778e-02,2.377256006002426147e-02,4.778612405061721802e-02,1.026346087455749512e-01,-8.598883450031280518e-02,-4.509471729397773743e-02,-1.244386136531829834e-01,-4.498918354511260986e-02,-1.004561483860015869e-01,5.595892667770385742e-02,-6.173771619796752930e-02,7.660923060029745102e-03,5.557205528020858765e-02,-1.229294091463088989e-01,-2.003769949078559875e-02,2.044686116278171539e-02
4.244811832904815674e-02,4.705722630023956299e-02,-1.012701019644737244e-01,-5.080607533454895020e-02,-6.829390674829483032e-02,4.171833395957946777e-02,-9.327273070812225342e-02,-1.049337983131408691e-01,1.071600019931793213e-01,-2.042246051132678986e-02,2.259473688900470734e-02,-1.218230426311492920e-01,1.514628250151872635e-02,-4.092501103878021240e-02,5.576628446578979492e-02,6.957793980836868286e-02,1.063772067427635193e-01,-7.419208437204360962e-02,1.114545669406652451e-02,2.481755334883928299e-03,-1.042242795228958130e-01,-8.697754144668579102e-02,6.295824050903320312e-02,5.390926823019981384e-02,2.972204238176345825e-02,-1.558726653456687927e-02,6.480560451745986938e-02,7.895062677562236786e-03,-7.538558542728424072e-02,-9.458137303590774536e-02,-1.168976649641990662e-01,-5.665916949510574341e-02,6.335025280714035034e-02,7.110537588596343994e-02,3.246544301509857178e-02,9.228033572435379028e-02,2.853148430585861206e-02,7.894379645586013794e-02,8.942334353923797607e-02,-4.694638401269912720e-02,-3.434009850025177002e-02,3.657360747456550598e-02,1.218287870287895203e-01,3.309273719787597656e-02,2.702812291681766510e-02,9.466367214918136597e-02,9.244615584611892700e-02,1.112944334745407104e-01,8.916046470403671265e-02,4.921056702733039856e-02,-1.562386006116867065e-02,-9.711496531963348389e-02,9.378075599670410156e-03,-7.188429683446884155e-02,2.193333767354488373e-02,-2.421049214899539948e-02,-7.229118794202804565e-02,-9.241364896297454834e-03,9.757134318351745605e-02,1.058961078524589539e-01,2.585951425135135651e-02,2.459769137203693390e-02,7.385984528809785843e-03,-1.796677708625793457e-02,-1.850738376379013062e-02,-1.042636111378669739e-01,1.127455309033393860e-01,1.262877602130174637e-02,7.389158010482788086e-02,1.179559715092182159e-02,-1.029132306575775146e-01,7.768952101469039917e-02,1.310821026563644409e-01,-6.491176038980484009e-02,2.824213728308677673e-02,1.142492145299911499e-01,-8.760499954223632812e-02,7.328580319881439209e-02,-1.367411855608224869e-02,7.356750965118408203e-02,-4.982943832874298096e-02,7.953763008117675781e-02,-1.067618578672409058e-01,5.304764211177825928e-02,-4.039158578962087631e-03,5.173343420028686523e-02,1.068679913878440857e-01,-1.149800792336463928e-01,-5.190422758460044861e-02,4.023416712880134583e-02,2.897845022380352020e-02,5.616420134902000427e-02,-3.458343213424086571e-03,3.409858793020248413e-02,-5.368705093860626221e-02,-1.912500895559787750e-02,4.408397898077964783e-02,4.785488918423652649e-02,-1.009389292448759079e-02,2.098900079727172852e-02,-5.203354638069868088e-03,-1.282779276371002197e-01,-5.720015149563550949e-03,-1.191979423165321350e-01,-6.411465257406234741e-02,6.727147102355957031e-02,4.409247264266014099e-02,1.079020835459232330e-02,-8.620853722095489502e-02,7.181073725223541260e-02,7.504872232675552368e-02,6.215647235512733459e-02,-1.728256605565547943e-02,3.859129920601844788e-02,-1.226703898282721639e-04,1.140812635421752930e-01,3.190240263938903809e-02,-8.287343196570873260e-03,6.449261307716369629e-02,-1.074691787362098694e-01,-3.254301100969314575e-02,3.556624054908752441e-02,1.357468962669372559e-02,1.174534857273101807e-01,-1.589175499975681305e-02,-7.150465156883001328e-03,5.864778533577919006e-02,1.024536713957786560e-01
2.436563372611999512e-02,-5.032263323664665222e-02,1.202829256653785706e-01,-4.805412888526916504e-02,-7.459681481122970581e-02,-8.662784844636917114e-02,-8.251524530351161957e-03,-8.737802505493164062e-03,-1.130956411361694336e-02,-2.091560885310173035e-02,7.892712205648422241e-02,2.783238887786865234e-02,2.783813886344432831e-02,-5.348566547036170959e-02,9.320405125617980957e-02,6.206468865275382996e-02,1.178993210196495056e-01,2.626597695052623749e-02,8.634412288665771484e-02,-9.833100438117980957e-02,1.654834859073162079e-02,4.679456353187561035e-02,-8.265018463134765625e-02,2.043608203530311584e-02,6.983839720487594604e-02,-8.422628045082092285e-02,-5.494101345539093018e-02,-8.794467896223068237e-02,-1.187340915203094482e-01,-1.198125928640365601e-01,1.159825623035430908e-01,4.037263989448547363e-02,-4.186054691672325134e-02,-6.799538969062268734e-04,1.084643155336380005e-01,-2.164243534207344055e-02,9.186270833015441895e-02,2.292631007730960846e-02,3.954650461673736572e-02,1.157000660896301270e-01,5.071943253278732300e-02,7.374525070190429688e-02,-1.153397485613822937e-01,-7.182654738426208496e-02,-5.360221862792968750e-02,6.696625053882598877e-02,7.163424044847488403e-02,-8.611950278282165527e-02,5.652254819869995117e-02,-6.612529605627059937e-02,7.233500480651855469e-02,7.612860202789306641e-02,6.593080610036849976e-02,-1.013819575309753418e-01,9.430290013551712036e-02,-1.115679219365119934e-01,5.923970043659210205e-02,-2.500897645950317383e-02,-8.642429113388061523e-02,1.234064400196075439e-01,4.477727413177490234e-02,1.103658750653266907e-01,9.852673113346099854e-02,8.568137884140014648e-03,-1.374453306198120117e-03,7.224359363317489624e-02,-3.565090894699096680e-02,8.721935749053955078e-02,6.857356429100036621e-02,6.696595996618270874e-02,-1.209206506609916687e-02,4.362355917692184448e-02,8.005803823471069336e-02,1.208138465881347656e-02,-2.113539166748523712e-02,-1.187629103660583496e-01,-9.145111590623855591e-02,-7.989725470542907715e-02,-1.535125263035297394e-02,1.158833503723144531e-01,4.366859793663024902e-02,5.050546303391456604e-02,-9.960126876831054688e-02,-8.285254240036010742e-03,3.907886520028114319e-02,6.753686070442199707e-02,4.158606380224227905e-02,-3.413508832454681396e-02,3.099286556243896484e-02,-6.293970346450805664e-02,-5.458759889006614685e-02,-1.007541492581367493e-01,-9.219738841056823730e-02,5.086315795779228210e-02,1.063443422317504883e-01,-1.086225286126136780e-01,6.012080237269401550e-03,6.236189603805541992e-02,-7.044493407011032104e-02,-9.762728214263916016e-02,-7.642603665590286255e-02,3.161568194627761841e-02,-1.036604717373847961e-01,5.963978543877601624e-02,-1.407846808433532715e-02,-7.186830043792724609e-02,9.869554638862609863e-02,-9.317383170127868652e-02,-8.815074712038040161e-02,-2.752748690545558929e-02,5.494812130928039551e-02,1.038894057273864746e-01,5.058082193136215210e-02,1.033075749874114990e-01,-9.345069527626037598e-02,6.757074594497680664e-02,5.918833613395690918e-02,-5.737596377730369568e-02,-3.860726952552795410e-02,9.201273322105407715e-02,-3.559947013854980469e-02,1.207492649555206299e-01,-8.121225237846374512e-02,1.077351942658424377e-01,-6.172645092010498047e-02,5.588006973266601562e-02,-8.490426838397979736e-02,1.107813268899917603e-01
1.090695187449455261e-01,-4.307826235890388489e-02,-5.800632387399673462e-02,-6.427431851625442505e-02,6.015096604824066162e-02,-5.163604021072387695e-02,-2.263006567955017090e-02,1.765668392181396484e-02,-2.517426759004592896e-02,7.144539803266525269e-02,4.643109813332557678e-02,8.237099647521972656e-02,1.317789871245622635e-02,2.487583830952644348e-02,-2.537498623132705688e-02,-7.956992089748382568e-02,8.495967835187911987e-02,6.751032918691635132e-02,-4.485035687685012817e-02,3.282180428504943848e-02,7.600439339876174927e-02,-1.171052232384681702e-01,4.195866733789443970e-02,-6.712669134140014648e-02,2.809436991810798645e-02,-6.046123453415930271e-04,5.923558771610260010e-02,5.625536292791366577e-02,-2.205743454396724701e-02,-3.425997495651245117e-02,-4.316200315952301025e-02,9.201444685459136963e-02,-6.944451481103897095e-02,8.523382246494293213e-02,8.212147280573844910e-03,1.263356953859329224e-01,1.023841574788093567e-01,-3.329825773835182190e-02,8.076001703739166260e-02,-2.562178485095500946e-02,1.374761201441287994e-02,-4.926855489611625671e-02,6.710494309663772583e-02,1.155035868287086487e-01,1.197124123573303223e-01,-1.606217585504055023e-02,-3.859237208962440491e-02,8.076685667037963867e-02,3.833167720586061478e-04,-9.278492629528045654e-02,8.367922902107238770e-02,-1.244004964828491211e-01,-4.538673907518386841e-02,-5.491912364959716797e-02,4.602524265646934509e-02,-1.752627268433570862e-02,8.195416629314422607e-02,-9.331257641315460205e-02,8.013619482517242432e-02,5.214975774288177490e-02,9.319861978292465210e-02,-8.980277180671691895e-02,6.059374660253524780e-03,-9.259784221649169922e-02,-3.136422857642173767e-02,3.170473501086235046e-02,-6.449157744646072388e-02,-9.579190053045749664e-03,9.228444099426269531e-02,-4.731366783380508423e-02,1.186030879616737366e-01,-1.161553338170051575e-02,-7.583449035882949829e-02,9.352596104145050049e-02,-7.848234474658966064e-02,1.280875355005264282e-01,-9.535714983940124512e-02,-7.667347788810729980e-02,-9.813489764928817749e-02,-6.231993436813354492e-02,-1.070787981152534485e-01,1.148790791630744934e-01,-6.029662862420082092e-02,1.140132471919059753e-01,2.538360469043254852e-02,-1.128440201282501221e-01,6.939287483692169189e-02,-3.568367660045623779e-02,-2.588809095323085785e-02,-1.204930618405342102e-01,6.812406238168478012e-03,-1.084900721907615662e-01,5.757462233304977417e-02,5.722799897193908691e-02,-1.390992663800716400e-02,2.615131437778472900e-03,6.185146793723106384e-02,4.724504798650741577e-02,-2.853791788220405579e-02,-1.224613785743713379e-01,3.819311782717704773e-02,-6.181557103991508484e-02,2.329659648239612579e-02,1.051097810268402100e-01,4.674959182739257812e-02,-1.087274700403213501e-01,-8.939067274332046509e-02,1.274274438619613647e-01,7.286583632230758667e-02,-1.402660366147756577e-02,2.847771346569061279e-02,6.975243240594863892e-02,-4.857661575078964233e-02,-8.123008906841278076e-02,-1.421297341585159302e-02,-6.427825242280960083e-02,-8.507342636585235596e-02,1.589125022292137146e-02,9.444302320480346680e-02,-1.042784973978996277e-01,-1.730267191305756569e-03,-3.280633687973022461e-02,7.607677578926086426e-02,2.695251442492008209e-02,-5.370434001088142395e-02,1.840694434940814972e-02,4.326127097010612488e-02,-1.181286573410034180e-01
5.794754251837730408e-02,-5.363917723298072815e-02,6.679829955101013184e-02,7.974022626876831055e-02,-9.172910451889038086e-02,-5.192226730287075043e-03,-7.458811998367309570e-02,-3.308773040771484375e-02,-1.018012017011642456e-01,-8.332833647727966309e-02,-1.658783294260501862e-02,-4.141906276345252991e-03,-7.350060343742370605e-02,4.739876091480255127e-02,1.210069656372070312e-01,2.170067094266414642e-02,1.209335774183273315e-01,-1.175396516919136047e-01,-1.805480010807514191e-02,-7.982645183801651001e-02,5.248691886663436890e-02,-1.205696612596511841e-01,-2.116201445460319519e-02,5.022632889449596405e-03,6.557414680719375610e-02,4.701482132077217102e-02,3.392267227172851562e-02,1.196356490254402161e-01,1.221788972616195679e-01,-5.106379091739654541e-02,3.033637814223766327e-02,5.311438441276550293e-02,1.111654639244079590e-01,-6.578534841537475586e-03,5.397188011556863785e-03,9.516410529613494873e-02,4.111466463655233383e-03,-1.071852445602416992e-01,1.213695555925369263e-01,6.439937278628349304e-04,5.822389200329780579e-02,9.380251169204711914e-03,3.767672181129455566e-02,3.821024671196937561e-02,-6.063064094632863998e-03,-5.691034719347953796e-02,-4.607579112052917480e-02,-1.143402010202407837e-01,-5.767882242798805237e-02,-3.951981291174888611e-02,7.181582599878311157e-02,-1.164449155330657959e-01,6.500697880983352661e-02,-8.799815550446510315e-03,-5.573937296867370605e-02,-3.516849875450134277e-02,8.892938494682312012e-02,-7.075035572052001953e-02,2.047033607959747314e-02,-7.886504754424095154e-03,-1.838875934481620789e-02,-2.268206700682640076e-02,2.669611200690269470e-02,-1.248656734824180603e-01,7.863505929708480835e-02,8.603601902723312378e-02,-1.281232833862304688e-01,4.252403602004051208e-02,6.958816945552825928e-02,-5.381021276116371155e-02,-2.721641771495342255e-02,2.446542680263519287e-02,-1.137596815824508667e-01,9.153476357460021973e-02,-1.250050663948059082e-01,2.321908436715602875e-02,-4.678849130868911743e-02,-8.472680114209651947e-03,9.768658131361007690e-02,1.257786601781845093e-01,7.326202467083930969e-03,-2.984886802732944489e-02,-5.510702729225158691e-02,6.581047177314758301e-02,-2.049162611365318298e-02,-5.933606624603271484e-02,-5.599001049995422363e-02,6.450439989566802979e-02,-5.039841309189796448e-02,5.375857278704643250e-02,1.197228506207466125e-01,1.683868095278739929e-02,3.982023894786834717e-02,6.825412064790725708e-02,-7.049924135208129883e-02,1.226542815566062927e-01,-9.366095811128616333e-02,-2.865207754075527191e-02,2.053335495293140411e-02,-5.957344174385070801e-02,-9.171310067176818848e-02,1.228053420782089233e-01,-4.175431281328201294e-02,-1.599485427141189575e-02,1.443918514996767044e-02,-1.244421452283859253e-01,-7.991711609065532684e-03,-1.410924363881349564e-02,7.654687762260437012e-02,3.289297968149185181e-02,1.574735529720783234e-02,5.740569531917572021e-02,-9.568110108375549316e-02,6.181765720248222351e-02,-8.939428371377289295e-04,4.745677579194307327e-03,5.252442788332700729e-03,6.362242996692657471e-02,-9.419113397598266602e-03,4.522304236888885498e-02,-3.343988955020904541e-02,-5.773398280143737793e-02,1.208700835704803467e-01,7.055035978555679321e-02,-5.028094351291656494e-02,7.591272145509719849e-02,8.075653016567230225e-02,8.448380231857299805e-02
-8.919028937816619873e-02,-5.717289447784423828e-02,-6.788773089647293091e-02,-1.257951743900775909e-02,3.998903557658195496e-02,1.794930174946784973e-02,5.223642662167549133e-02,1.045204102993011475e-01,8.055914938449859619e-02,-1.004202142357826233e-01,5.863543227314949036e-02,2.155175805091857910e-02,2.402285672724246979e-02,2.747021429240703583e-02,4.876571893692016602e-02,-7.813674211502075195e-02,-1.499631535261869431e-02,-9.709039703011512756e-03,1.156366169452667236e-01,3.067724779248237610e-02,-8.303899317979812622e-02,-7.859212905168533325e-02,-8.014690876007080078e-02,-5.674659769283607602e-05,1.809416152536869049e-02,-4.903990030288696289e-02,8.802975714206695557e-02,6.366583704948425293e-02,3.437481448054313660e-02,8.680772036314010620e-02,-1.028865203261375427e-02,6.912501156330108643e-02,5.584495514631271362e-02,-1.158118527382612228e-02,8.660595118999481201e-02,9.044141322374343872e-02,-4.812716692686080933e-02,-2.075922861695289612e-02,3.055545128881931305e-02,-5.011050030589103699e-02,-5.228488147258758545e-02,-1.138758063316345215e-01,9.271897375583648682e-02,-1.040459573268890381e-01,8.478061109781265259e-02,9.799701161682605743e-03,5.252688378095626831e-02,-9.259134531021118164e-02,-8.817968517541885376e-02,-6.521403789520263672e-02,-7.021875679492950439e-02,3.372024372220039368e-02,1.508292509242892265e-03,-2.245167037472128868e-03,3.172955289483070374e-02,-4.035893362015485764e-03,-7.646891474723815918e-02,1.194147989153862000e-01,-6.957831978797912598e-02,1.000111456960439682e-02,5.953025445342063904e-02,-7.260696962475776672e-03,1.093624308705329895e-01,-1.470834016799926758e-02,6.636173278093338013e-02,-4.801893979310989380e-02,-8.943668007850646973e-02,1.120471507310867310e-01,8.376663178205490112e-02,6.293515115976333618e-02,-9.092941880226135254e-02,5.486270040273666382e-02,-9.053053706884384155e-02,-7.004095613956451416e-02,1.415342651307582855e-02,6.753675639629364014e-02,4.350923746824264526e-02,-5.509521067142486572e-02,-1.138561442494392395e-01,4.065873473882675171e-02,8.508709818124771118e-02,-5.294772237539291382e-02,6.003069132566452026e-02,-9.423939883708953857e-02,8.919224888086318970e-02,-6.924828886985778809e-02,-3.831034526228904724e-02,6.979499012231826782e-03,-8.193854242563247681e-02,1.154996156692504883e-01,-7.914798706769943237e-02,8.452889509499073029e-03,-7.482122629880905151e-03,-1.044824644923210144e-01,1.671564020216464996e-02,6.275955587625503540e-02,3.624705830588936806e-03,6.755530834197998047e-02,3.299024328589439392e-02,-6.552138924598693848e-02,-1.420665439218282700e-02,6.738625466823577881e-02,7.002253830432891846e-02,-3.466708213090896606e-02,-4.009741544723510742e-02,-9.909904003143310547e-02,4.835936427116394043e-02,-3.559465333819389343e-02,1.309428364038467407e-01,-4.431973677128553391e-03,-8.677183091640472412e-02,-2.146065235137939453e-02,-6.234000623226165771e-02,-8.862233161926269531e-02,-1.106204092502593994e-01,9.178300946950912476e-02,-1.234665215015411377e-01,-1.188016533851623535e-01,1.029688119888305664e-01,-7.647015154361724854e-02,9.151548892259597778e-02,5.710878968238830566e-02,-1.777410507202148438e-04,-4.284289851784706116e-02,1.091173589229583740e-01,1.112710237503051758e-01,-1.841755397617816925e-02,-5.313578248023986816e-02
-2.522174641489982605e-02,3.184764459729194641e-02,6.709545850753784180e-02,4.602051153779029846e-02,-7.851409912109375000e-02,-1.244408264756202698e-01,1.124050915241241455e-01,1.018896698951721191e-02,3.059923276305198669e-02,-9.519467502832412720e-02,9.486714377999305725e-03,1.132117211818695068e-01,2.541525289416313171e-02,-1.490244828164577484e-02,-9.039438515901565552e-02,-4.479325562715530396e-02,4.539241641759872437e-02,-1.121354177594184875e-01,-4.807815700769424438e-02,5.855363607406616211e-02,-7.831387966871261597e-02,6.833780556917190552e-02,-9.215252846479415894e-02,-3.701241686940193176e-02,5.130790546536445618e-02,1.075810864567756653e-01,1.139463335275650024e-01,1.144319679588079453e-02,-7.039082795381546021e-02,-7.932240515947341919e-02,7.326765358448028564e-02,1.786731183528900146e-02,-1.184387356042861938e-01,-1.037669926881790161e-01,6.635618209838867188e-02,8.756864815950393677e-02,4.398808255791664124e-02,-7.467222213745117188e-02,5.712702125310897827e-02,4.473802819848060608e-02,9.784612804651260376e-02,-5.036155227571725845e-03,-6.621912121772766113e-02,3.794768452644348145e-02,4.782795161008834839e-02,-1.240345537662506104e-01,-1.166390106081962585e-01,-7.503055036067962646e-02,-1.140753850340843201e-01,2.268096804618835449e-02,1.996791362762451172e-02,8.216685801744461060e-02,-1.213959679007530212e-01,-6.631544977426528931e-02,-5.896528065204620361e-02,-1.824298128485679626e-02,6.722513586282730103e-02,-1.136241257190704346e-01,2.548629604279994965e-02,-7.693652808666229248e-02,-6.325892359018325806e-02,-1.239264234900474548e-01,-5.163918435573577881e-02,-2.960133180022239685e-02,7.327824831008911133e-02,-1.167581602931022644e-01,-1.422724425792694092e-01,9.444636106491088867e-02,-8.765536546707153320e-02,1.034778282046318054e-01,-8.633203804492950439e-03,1.206432059407234192e-01,-1.077610030770301819e-01,1.190332323312759399e-01,1.665162667632102966e-02,1.110352799296379089e-01,8.843947201967239380e-02,9.862577915191650391e-02,-4.014885518699884415e-03,-8.434091508388519287e-02,-9.004823863506317139e-02,-8.733516186475753784e-02,-4.021946713328361511e-02,-1.770038530230522156e-02,9.522454440593719482e-02,2.556174993515014648e-03,9.100556373596191406e-02,-5.243497341871261597e-02,1.363156270235776901e-02,3.329277783632278442e-02,-3.529442474246025085e-02,1.102613583207130432e-01,-1.228385642170906067e-01,6.301646679639816284e-02,-9.928494691848754883e-02,-8.750525861978530884e-02,-3.056527115404605865e-02,-2.624170482158660889e-02,-7.734112441539764404e-02,-1.213738322257995605e-01,5.078491568565368652e-02,8.569563180208206177e-02,1.382152736186981201e-02,-8.340562880039215088e-02,-8.897042274475097656e-02,4.012484848499298096e-02,2.155387029051780701e-02,1.149170324206352234e-01,-1.215031072497367859e-01,-1.046823933720588684e-01,1.110919564962387085e-02,-7.321128249168395996e-02,-5.427530966699123383e-03,-8.788905292749404907e-02,-5.499507486820220947e-02,8.309970051050186157e-02,-3.000488877296447754e-02,2.245103754103183746e-02,-5.865052342414855957e-02,3.829939663410186768e-02,-5.991631001234054565e-02,2.473610639572143555e-02,-6.840398907661437988e-02,-1.510809827595949173e-02,5.493638291954994202e-02,4.683839157223701477e-02,2.258566953241825104e-02,3.123945742845535278e-02
-1.817573793232440948e-02,-8.827583491802215576e-02,2.835942059755325317e-02,9.867590665817260742e-02,-4.085101559758186340e-02,-3.505681455135345459e-02,9.281589835882186890e-02,9.169265627861022949e-02,-1.075092405080795288e-01,3.127116337418556213e-02,-4.009586945176124573e-02,1.148717105388641357e-01,2.432358264923095703e-02,-1.237270161509513855e-01,-9.101918339729309082e-02,-1.109145879745483398e-01,-1.677337475121021271e-02,-2.550021931529045105e-02,-1.076705083250999451e-01,-7.853212207555770874e-02,6.525754928588867188e-02,3.348496556282043457e-02,7.085232436656951904e-02,3.836774826049804688e-02,1.036809459328651428e-01,1.107412427663803101e-01,-1.240515783429145813e-01,-9.374642372131347656e-02,1.247747614979743958e-01,5.791157111525535583e-02,-1.164262294769287109e-01,-8.947735279798507690e-02,-1.245091855525970459e-01,1.200528964400291443e-01,-7.753309607505798340e-02,9.062171727418899536e-02,-4.679641127586364746e-02,-1.051393225789070129e-01,8.326872438192367554e-02,4.228833317756652832e-02,7.910422980785369873e-02,-6.256446242332458496e-02,-8.440808206796646118e-02,-9.853962063789367676e-02,1.186597347259521484e-01,-6.378289777785539627e-03,1.748172193765640259e-02,4.690501093864440918e-02,-1.106566414237022400e-01,6.027477234601974487e-02,4.328979551792144775e-02,-8.770716190338134766e-02,1.291134767234325409e-02,1.201564520597457886e-01,1.029521785676479340e-02,2.662234008312225342e-02,-4.581397771835327148e-02,-3.176273312419652939e-04,9.984637051820755005e-02,6.502494215965270996e-02,-3.171743825078010559e-02,1.236890628933906555e-02,4.556226078420877457e-03,1.182889938354492188e-02,1.167413815855979919e-01,-4.551022499799728394e-02,-7.133800536394119263e-02,3.758267685770988464e-02,1.127462908625602722e-01,1.976131647825241089e-02,-6.834511179476976395e-03,5.927160382270812988e-03,-7.028273493051528931e-02,9.015884995460510254e-02,5.877053365111351013e-02,4.381735995411872864e-02,-2.503922954201698303e-02,4.330999031662940979e-02,-4.779546707868576050e-02,-3.732180595397949219e-02,5.957278236746788025e-02,-2.064250223338603973e-02,-9.182575345039367676e-02,-5.959345027804374695e-02,1.548434887081384659e-02,7.912284135818481445e-02,1.111141890287399292e-01,-3.180766105651855469e-02,-2.478502690792083740e-02,1.548730954527854919e-02,-5.175616219639778137e-02,1.981066912412643433e-02,5.707662180066108704e-02,-1.097267307341098785e-02,1.059662625193595886e-01,-1.111899390816688538e-01,7.122069597244262695e-02,-8.761509507894515991e-02,-3.503039851784706116e-02,-5.284428596496582031e-02,3.868909552693367004e-02,-9.010196477174758911e-02,6.713622808456420898e-02,-8.484810590744018555e-02,8.580753207206726074e-02,9.619265794754028320e-02,-4.021697491407394409e-02,-1.019514501094818115e-01,4.168519750237464905e-02,1.132516786456108093e-01,-2.429977059364318848e-02,-9.564590454101562500e-02,5.684717092663049698e-03,-1.065513417124748230e-01,2.790206670761108398e-02,-3.442768380045890808e-02,2.910816669464111328e-02,-9.784754365682601929e-02,-4.272067546844482422e-02,-1.158764958381652832e-02,-1.150128394365310669e-01,-1.451200246810913086e-02,7.242184877395629883e-02,-9.797001630067825317e-02,-2.055400237441062927e-02,-8.661757409572601318e-02,5.621893703937530518e-02,5.591175984591245651e-03
1.181497871875762939e-01,-3.866558894515037537e-02,5.616696923971176147e-02,4.601450636982917786e-02,4.145637154579162598e-02,8.081557601690292358e-02,-1.134667918086051941e-01,8.592638373374938965e-02,-2.088045887649059296e-02,7.842044532299041748e-02,-1.211821064352989197e-01,5.641792714595794678e-02,-8.963295072317123413e-02,-3.009490855038166046e-02,-5.569082126021385193e-02,5.987062677741050720e-02,4.987733066082000732e-02,7.433045655488967896e-02,9.301003068685531616e-02,5.706547200679779053e-02,-3.851101920008659363e-02,5.000323057174682617e-02,7.484174519777297974e-02,9.371926076710224152e-03,-1.042271405458450317e-01,8.411375433206558228e-02,-9.977441281080245972e-02,-6.438259780406951904e-02,4.305783659219741821e-02,-3.522184863686561584e-02,-1.078075394034385681e-01,-1.040304824709892273e-01,1.255452632904052734e-01,3.826562315225601196e-02,4.286405746825039387e-04,-1.121697351336479187e-01,5.797358974814414978e-02,-4.929826408624649048e-02,-1.052419245243072510e-01,-5.274073407053947449e-02,-8.213795721530914307e-02,-1.084997579455375671e-01,-8.380126208066940308e-03,7.977499067783355713e-02,4.389818757772445679e-02,-1.050939038395881653e-01,-5.124808475375175476e-02,-5.173828452825546265e-02,-6.016005948185920715e-02,6.731435656547546387e-02,-1.441395282745361328e-02,7.082974910736083984e-02,-1.170973181724548340e-01,-1.275485903024673462e-01,2.723020501434803009e-02,2.065349556505680084e-02,-8.410654962062835693e-02,4.979645833373069763e-02,1.335154473781585693e-02,-3.886467590928077698e-02,1.204303205013275146e-01,-9.605775773525238037e-02,6.501912325620651245e-02,-6.683342158794403076e-02,-7.914827018976211548e-02,-5.632070079445838928e-02,9.207542985677719116e-02,1.581843569874763489e-02,-6.923187524080276489e-02,-8.088398724794387817e-02,1.265935897827148438e-01,5.290355160832405090e-02,-2.157974429428577423e-02,3.806161694228649139e-03,6.643665581941604614e-02,-1.052789203822612762e-02,2.371740527451038361e-02,8.893815428018569946e-02,3.263041004538536072e-02,3.355278819799423218e-02,-5.466004088521003723e-02,1.409917138516902924e-02,8.814811706542968750e-03,5.718861706554889679e-03,-1.159512251615524292e-01,2.379894256591796875e-02,-1.086932644248008728e-01,2.332784049212932587e-02,-9.212669730186462402e-02,-8.407317101955413818e-03,-1.364394277334213257e-02,9.485078603029251099e-02,4.039546847343444824e-02,-1.425560377538204193e-02,1.119457744061946869e-02,-1.304641924798488617e-02,6.443295627832412720e-02,-2.642297744750976562e-02,-6.613149493932723999e-02,-7.304891943931579590e-02,6.727735511958599091e-03,7.614419329911470413e-03,-1.153716519474983215e-01,-8.076039142906665802e-03,-2.223865687847137451e-02,8.988113701343536377e-02,-4.360371828079223633e-02,1.083448827266693115e-01,1.013018861413002014e-01,2.117511257529258728e-02,2.317147515714168549e-02,-1.189820766448974609e-01,-2.691761776804924011e-02,-1.270340848714113235e-02,1.216586902737617493e-01,9.064090251922607422e-02,8.722320944070816040e-02,-6.528957188129425049e-02,-7.697123289108276367e-02,5.593058839440345764e-02,-5.090628936886787415e-02,-3.869754076004028320e-02,2.217105031013488770e-02,9.238784015178680420e-02,-4.713696241378784180e-02,-2.342205308377742767e-02,9.195742313750088215e-04,6.240120623260736465e-03
7.449416816234588623e-02,5.841898731887340546e-03,-2.039838582277297974e-03,-2.011354453861713409e-02,-9.810274094343185425e-02,-8.657601661980152130e-03,3.550243377685546875e-02,1.165114939212799072e-01,-8.401263505220413208e-02,1.015352830290794373e-01,3.288298100233078003e-02,-4.425536096096038818e-02,-6.760473549365997314e-02,7.275969535112380981e-02,3.428410366177558899e-02,-8.139845728874206543e-02,4.625003039836883545e-02,-4.740788415074348450e-02,-1.554056536406278610e-02,1.232918875757604837e-04,3.028889000415802002e-02,5.767080187797546387e-02,-2.797539345920085907e-02,2.303408831357955933e-02,7.612552144564688206e-05,8.258866518735885620e-02,-6.978930532932281494e-02,2.869747020304203033e-02,2.339223958551883698e-02,-5.436069890856742859e-02,6.767065823078155518e-02,1.174922883510589600e-01,1.182313114404678345e-01,-4.086958616971969604e-02,-6.579853594303131104e-02,3.816314041614532471e-02,-9.120362997055053711e-02,-1.053110808134078979e-01,-9.644209593534469604e-02,-8.317495882511138916e-02,7.391352951526641846e-02,7.801794260740280151e-02,6.434499472379684448e-02,9.428774565458297729e-02,7.210580259561538696e-02,-5.781828984618186951e-02,1.111440882086753845e-01,-4.827231168746948242e-02,-7.867643237113952637e-02,-9.545591473579406738e-02,-6.523230671882629395e-02,5.464356765151023865e-02,-2.367291040718555450e-02,9.422935545444488525e-03,6.312998384237289429e-02,-2.365894988179206848e-02,-1.111196950078010559e-01,-9.668502211570739746e-02,3.189665079116821289e-02,4.419550299644470215e-02,-3.479249775409698486e-02,8.971333503723144531e-02,4.134739190340042114e-02,-1.139004155993461609e-01,1.153683587908744812e-01,7.114375382661819458e-02,1.024671643972396851e-01,2.460057660937309265e-02,-1.868656277656555176e-02,-6.852247565984725952e-02,2.836130931973457336e-02,-4.144352674484252930e-02,-2.557760290801525116e-02,3.802884370088577271e-02,4.715954512357711792e-02,-2.182103320956230164e-02,-6.568115204572677612e-02,-1.018115784972906113e-02,9.888940304517745972e-02,1.010423526167869568e-01,5.561948567628860474e-02,-6.360724568367004395e-02,-6.198986899107694626e-03,-5.343848839402198792e-02,-6.508586555719375610e-02,-4.272496700286865234e-02,-6.650412827730178833e-02,-9.228538721799850464e-03,-7.443800568580627441e-02,-7.416067272424697876e-02,-1.035295352339744568e-01,-7.288096845149993896e-02,-1.049176827073097229e-01,4.075122997164726257e-02,-7.196740061044692993e-02,-1.041840314865112305e-01,-7.761947810649871826e-02,-7.387365400791168213e-02,1.007555350661277771e-01,-4.192063212394714355e-02,-8.064204454421997070e-02,-1.273202896118164062e-01,1.148275211453437805e-01,-9.407977759838104248e-02,1.163441166281700134e-01,2.134403772652149200e-02,-2.601507119834423065e-02,6.498634815216064453e-02,8.554118871688842773e-02,5.328722670674324036e-02,1.167082563042640686e-01,-1.319363526999950409e-02,1.012599095702171326e-01,-2.105706743896007538e-02,1.906658522784709930e-02,-1.312898565083742142e-02,-3.033316880464553833e-02,-1.227420717477798462e-01,1.550799608230590820e-02,2.007915079593658447e-02,-5.359743908047676086e-02,-1.078291535377502441e-01,-1.173780262470245361e-01,-5.231070145964622498e-02,-1.366645470261573792e-02,3.933332860469818115e-02,-3.076243912801146507e-03,-2.856058813631534576e-02
-1.085673123598098755e-01,3.629831969738006592e-02,-2.340160310268402100e-02,3.731513023376464844e-02,1.009502112865447998e-01,8.373923599720001221e-02,8.720163255929946899e-02,9.327375888824462891e-02,1.605224795639514923e-02,9.195152670145034790e-02,1.000806912779808044e-01,1.178465858101844788e-01,-8.696449548006057739e-02,8.864886313676834106e-02,-6.932401657104492188e-02,-7.397553324699401855e-02,9.839020669460296631e-02,3.914257045835256577e-03,5.425921082496643066e-02,-6.746923923492431641e-02,-7.540014386177062988e-02,9.368616342544555664e-02,-2.685866877436637878e-02,1.860912516713142395e-02,-2.205070480704307556e-02,-7.442692667245864868e-02,-6.521603465080261230e-02,1.133298352360725403e-01,5.381585285067558289e-02,-2.252437174320220947e-02,4.605484008789062500e-02,-1.063204184174537659e-01,7.594396173954010010e-02,7.593859732151031494e-02,-1.037390455603599548e-01,4.233657568693161011e-02,1.947212219238281250e-02,-4.889195784926414490e-02,1.020245477557182312e-01,-4.898460581898689270e-02,-1.110217068344354630e-02,1.000170316547155380e-02,-9.015969932079315186e-03,3.358754515647888184e-02,-5.276980996131896973e-02,7.930421084165573120e-02,6.903412751853466034e-03,5.220064520835876465e-02,-9.406936168670654297e-02,-9.431626647710800171e-02,-6.060647591948509216e-02,4.570588469505310059e-02,2.371982857584953308e-02,5.498068407177925110e-02,3.962876275181770325e-02,-6.120602786540985107e-02,4.316426813602447510e-02,4.756376612931489944e-03,3.000182099640369415e-02,-1.857407763600349426e-02,3.407248854637145996e-02,1.036851555109024048e-01,5.956140905618667603e-02,-4.319190979003906250e-03,7.022683322429656982e-02,1.288277953863143921e-01,-1.059300974011421204e-01,-1.740797609090805054e-02,7.554984651505947113e-03,6.994341313838958740e-02,1.572922244668006897e-02,7.511677592992782593e-02,-1.599276065826416016e-02,-1.210375800728797913e-01,-1.056540384888648987e-01,8.216318488121032715e-02,-2.179400908062234521e-04,7.435987144708633423e-02,7.827862352132797241e-02,1.831289380788803101e-02,1.061456836760044098e-02,8.518499135971069336e-02,1.160356998443603516e-01,-1.088190600275993347e-01,-8.183398842811584473e-02,1.042665541172027588e-01,-8.951723575592041016e-02,-9.225039929151535034e-02,-5.191373825073242188e-02,-4.167312011122703552e-02,-1.243383157998323441e-02,-6.120333075523376465e-02,-5.679723992943763733e-02,-4.303628951311111450e-02,1.154041066765785217e-01,4.586054012179374695e-02,-1.234114095568656921e-01,9.505108743906021118e-02,-7.375657558441162109e-03,1.075380146503448486e-01,1.143456250429153442e-01,-1.205213218927383423e-01,-1.410297304391860962e-02,-8.936947584152221680e-02,-1.581105589866638184e-02,-2.965166931971907616e-03,8.804091811180114746e-02,-1.133502796292304993e-01,-1.228179410099983215e-01,1.218032315373420715e-01,-5.560600012540817261e-02,-1.790645718574523926e-02,-1.280760020017623901e-01,1.272694170475006104e-01,9.959772229194641113e-02,1.989757828414440155e-02,-2.492579817771911621e-02,9.365102648735046387e-02,-1.728242635726928711e-02,1.415166165679693222e-02,2.954255789518356323e-02,5.794346332550048828e-02,3.161197900772094727e-02,1.017060503363609314e-02,-7.767444849014282227e-02,-4.663369804620742798e-02,-1.119660562835633755e-03,4.296335577964782715e-02
-6.673105806112289429e-02,-9.354016184806823730e-02,-1.072852909564971924e-01,-4.729953408241271973e-02,-9.924688190221786499e-02,-2.099947258830070496e-02,-7.663618773221969604e-03,2.168729901313781738e-02,-7.205409556627273560e-02,-4.132193699479103088e-02,8.720578253269195557e-02,1.219303309917449951e-01,1.021915972232818604e-01,1.597906462848186493e-02,1.174064353108406067e-01,-2.783083915710449219e-02,1.028091609477996826e-01,-6.275905668735504150e-02,-9.999421983957290649e-02,-5.231552943587303162e-02,-3.031123429536819458e-02,-5.590409040451049805e-03,9.347400069236755371e-02,3.109793551266193390e-02,-7.044903188943862915e-02,6.410085409879684448e-02,2.113459631800651550e-02,-1.204021051526069641e-01,-2.011819509789347649e-03,5.208714678883552551e-02,-9.835815988481044769e-03,-8.579113334417343140e-02,8.608523756265640259e-02,8.036273717880249023e-02,-9.092436730861663818e-02,1.413635909557342529e-01,-7.634310424327850342e-02,-7.431968301534652710e-02,-7.215371727943420410e-02,6.078579649329185486e-02,8.810395002365112305e-02,-1.138738449662923813e-02,-1.247312426567077637e-01,-1.034371331334114075e-01,-7.007809728384017944e-02,-1.966760866343975067e-02,8.298365026712417603e-02,-3.477641567587852478e-02,3.146835789084434509e-02,6.357476860284805298e-02,1.035394966602325439e-01,1.063174307346343994e-01,9.282612055540084839e-02,-1.252789348363876343e-01,-2.393689937889575958e-02,3.052799729630351067e-03,3.703117370605468750e-02,9.848034381866455078e-02,3.603492304682731628e-02,-9.148212522268295288e-02,-2.632093429565429688e-02,4.920499399304389954e-02,7.680675387382507324e-02,-9.684739261865615845e-02,2.911877259612083435e-02,-2.201240323483943939e-02,-1.474025379866361618e-02,-8.242624998092651367e-02,9.121679514646530151e-02,4.300473257899284363e-02,-5.942599475383758545e-02,-1.084868833422660828e-01,-9.643319249153137207e-02,-7.693324983119964600e-02,-1.519289612770080566e-02,1.310136169195175171e-01,-1.516546960920095444e-02,8.503974229097366333e-02,-1.048475950956344604e-01,2.441442571580410004e-03,-1.330052167177200317e-01,6.937050726264715195e-03,-1.180744171142578125e-02,4.219603911042213440e-02,-8.232773840427398682e-02,-1.024756133556365967e-01,-9.880461543798446655e-02,1.288010329008102417e-01,-8.824123442173004150e-02,6.102735176682472229e-03,1.229707151651382446e-01,1.216916963458061218e-01,-7.452937215566635132e-02,-2.331719174981117249e-02,6.947050988674163818e-02,5.371889472007751465e-02,-8.208465576171875000e-02,-2.453651651740074158e-02,6.539145857095718384e-02,5.035418272018432617e-02,-1.632598042488098145e-02,-8.681545406579971313e-02,1.109646782279014587e-01,9.308991581201553345e-02,-4.553569853305816650e-02,-5.439175665378570557e-02,-4.290222004055976868e-02,2.961579710245132446e-02,-4.825572296977043152e-02,-9.519316256046295166e-03,-5.137619003653526306e-02,-1.100561618804931641e-01,-7.911763340234756470e-02,-3.065861389040946960e-02,-4.432387277483940125e-02,-8.443427085876464844e-02,-1.888730563223361969e-02,-9.713624417781829834e-02,1.053172349929809570e-02,2.351140044629573822e-02,-1.251487135887145996e-01,5.862486362457275391e-02,-4.628986120223999023e-02,5.560174211859703064e-02,-1.159660816192626953e-01,-1.279283873736858368e-02,4.970381036400794983e-02,-1.114955991506576538e-01
6.945921480655670166e-02,-7.197266817092895508e-02,-4.698649048805236816e-02,6.169156171381473541e-03,-2.445950917899608612e-02,6.632670015096664429e-02,-8.337995409965515137e-02,-6.294515728950500488e-02,-1.487263944000005722e-02,-4.061588272452354431e-02,4.329370334744453430e-02,4.804469272494316101e-02,-5.015107616782188416e-02,-3.042217344045639038e-02,-6.856837123632431030e-02,-6.563144922256469727e-02,-5.097607523202896118e-02,2.106151543557643890e-02,-7.219129055738449097e-02,2.354126051068305969e-02,3.775870800018310547e-02,9.602954983711242676e-02,3.966414928436279297e-02,-3.819383680820465088e-02,4.905151575803756714e-02,1.211047917604446411e-01,-9.060767292976379395e-02,2.904174290597438812e-02,2.624598145484924316e-02,-8.881198242306709290e-03,8.910708874464035034e-02,-8.060973137617111206e-02,-1.230275481939315796e-01,1.864035800099372864e-02,-6.439584493637084961e-02,7.537127472460269928e-03,-3.819555789232254028e-02,-4.875782504677772522e-02,-1.120710968971252441e-01,-1.182479038834571838e-02,7.574480026960372925e-03,1.153129190206527710e-01,5.265248566865921021e-02,1.749204099178314209e-02,3.333150222897529602e-02,1.587054319679737091e-02,-1.649814099073410034e-02,9.656558744609355927e-03,1.267016585916280746e-02,-5.501554161310195923e-02,-9.217939525842666626e-02,-1.076929271221160889e-01,7.453916966915130615e-02,2.939697727560997009e-02,-1.073643788695335388e-01,-1.261401176452636719e-01,4.616714641451835632e-02,4.079753533005714417e-02,5.985766649246215820e-02,8.856693655252456665e-02,-8.305402100086212158e-02,-1.170707941055297852e-01,9.498443454504013062e-02,-2.151869051158428192e-02,-4.155060276389122009e-02,1.176383532583713531e-02,1.223381534218788147e-01,1.275641843676567078e-03,-4.715623799711465836e-03,2.906288392841815948e-02,4.636962339282035828e-02,-7.261039316654205322e-02,1.187624633312225342e-01,-6.872367858886718750e-02,1.233251467347145081e-01,-4.126237705349922180e-02,3.599860146641731262e-02,-1.041743159294128418e-01,1.140764728188514709e-01,-3.535899519920349121e-02,-5.006750300526618958e-02,-4.015975072979927063e-02,9.430888295173645020e-02,3.136777132749557495e-02,3.108690492808818817e-03,-5.300572514533996582e-02,-1.087182834744453430e-01,2.830657549202442169e-02,-1.101077720522880554e-01,9.884380549192428589e-02,-4.611607268452644348e-02,-8.744873106479644775e-02,-9.328709915280342102e-03,1.124559119343757629e-01,-1.026648581027984619e-01,-8.275437355041503906e-02,-5.075415223836898804e-02,5.157334730029106140e-03,-7.947614789009094238e-02,-1.118112504482269287e-01,8.706617355346679688e-02,-1.018693223595619202e-01,8.273770660161972046e-02,5.479836836457252502e-02,1.175757683813571930e-02,5.867257714271545410e-02,-1.731255277991294861e-02,-8.636543154716491699e-02,-8.300285786390304565e-02,-3.684420511126518250e-02,1.149242967367172241e-01,8.625342696905136108e-02,-6.443777680397033691e-02,-1.157242339104413986e-02,-7.590947300195693970e-02,-6.425808370113372803e-02,1.103279963135719299e-01,1.084182634949684143e-01,6.767654418945312500e-02,8.407540619373321533e-02,3.605636581778526306e-02,-1.126707196235656738e-01,-7.443058490753173828e-02,-6.395237147808074951e-02,-1.654952764511108398e-03,-7.762499898672103882e-02,8.929543942213058472e-02,9.523740969598293304e-03
-4.646642878651618958e-02,-1.182003542780876160e-01,-9.806270897388458252e-02,-1.010326445102691650e-01,-2.384446002542972565e-02,8.333335816860198975e-02,-5.565100163221359253e-02,6.501317024230957031e-02,6.518011912703514099e-03,1.084928885102272034e-01,7.126618921756744385e-02,1.057997345924377441e-02,5.503652244806289673e-02,3.418138250708580017e-02,2.535367012023925781e-02,6.605101376771926880e-02,1.995150931179523468e-03,-7.224955409765243530e-02,8.229742199182510376e-02,1.528083998709917068e-02,-5.262730643153190613e-02,-4.796254634857177734e-02,7.931959629058837891e-02,8.892236649990081787e-02,6.202058866620063782e-03,-9.259225428104400635e-02,6.640535593032836914e-02,7.377133704721927643e-03,-5.977135896682739258e-02,2.132877521216869354e-02,-9.656094759702682495e-02,1.177019253373146057e-01,-1.594545319676399231e-02,2.621382102370262146e-02,9.191785007715225220e-02,-4.069830849766731262e-02,-3.004717081785202026e-02,-9.231828898191452026e-02,-1.071100085973739624e-01,-2.611081302165985107e-02,-8.648265153169631958e-03,-9.743355959653854370e-02,5.908773839473724365e-02,-9.997749328613281250e-02,-5.966696143150329590e-02,-3.438599035143852234e-02,1.167248263955116272e-01,-6.167232990264892578e-02,-4.639010876417160034e-02,-1.200569495558738708e-01,-6.748689711093902588e-02,-1.143911853432655334e-01,7.385957241058349609e-02,2.377018146216869354e-02,9.517932683229446411e-02,-3.707752749323844910e-02,-1.229381840676069260e-02,1.025862172245979309e-01,-3.900666162371635437e-02,1.228735898621380329e-03,-6.643334776163101196e-02,3.855098737403750420e-03,6.852128356695175171e-02,1.162990927696228027e-01,-6.740532815456390381e-02,-1.107363030314445496e-01,7.268568873405456543e-02,3.105876222252845764e-02,1.093449443578720093e-01,-1.192130893468856812e-01,-6.337515078485012054e-03,-8.629157394170761108e-02,3.181122988462448120e-02,6.628960371017456055e-03,1.266066171228885651e-02,5.148677155375480652e-02,-1.074621900916099548e-01,-1.057840660214424133e-01,-1.201276183128356934e-01,1.194741800427436829e-01,-2.504551596939563751e-02,-4.790971986949443817e-03,-4.510340467095375061e-02,-1.014870926737785339e-01,9.863547980785369873e-02,-1.045291125774383545e-01,-2.221007458865642548e-02,-8.252501487731933594e-02,8.194931782782077789e-03,9.308158420026302338e-03,-1.214292794466018677e-01,-3.992207348346710205e-02,2.417564764618873596e-02,1.208268404006958008e-01,-3.588858246803283691e-02,-1.089606061577796936e-01,8.532328158617019653e-02,8.320393972098827362e-03,-1.263342052698135376e-01,-9.614944458007812500e-03,-6.157473474740982056e-02,-6.035487353801727295e-02,1.185922995209693909e-01,-4.952477663755416870e-02,8.183214068412780762e-02,1.764721795916557312e-02,6.043463945388793945e-02,9.907215833663940430e-03,-8.843637257814407349e-02,-3.014677949249744415e-02,9.618597477674484253e-02,4.624773189425468445e-02,-6.039825081825256348e-02,8.947890251874923706e-02,2.038756012916564941e-02,-5.658348649740219116e-02,-1.212414503097534180e-01,-9.671254456043243408e-02,-3.420680761337280273e-02,3.713053464889526367e-02,6.143992394208908081e-02,1.076027154922485352e-01,5.620217323303222656e-02,6.679289042949676514e-02,9.455890953540802002e-02,5.217425525188446045e-02,3.424046561121940613e-02,5.551033467054367065e-02
-1.041400432586669922e-02,-3.262937068939208984e-03,-4.026737809181213379e-02,-8.370527625083923340e-02,6.812229752540588379e-02,1.329961419105529785e-02,-9.425854682922363281e-02,1.121554374694824219e-01,1.008575260639190674e-01,-4.218444228172302246e-02,-8.037230372428894043e-02,5.288928747177124023e-02,-3.607630729675292969e-03,6.618365645408630371e-02,1.191326677799224854e-01,4.401990771293640137e-02,7.471740245819091797e-02,-6.944984197616577148e-03,-5.186536908149719238e-02,6.250116229057312012e-02,6.297764182090759277e-02,-4.990825057029724121e-02,-8.287778496742248535e-02,-1.207858622074127197e-01,-9.196129441261291504e-02,-1.244439184665679932e-01,6.708353757858276367e-02,1.164508163928985596e-01,-9.825220704078674316e-02,-2.452984452247619629e-02,6.524232029914855957e-02,8.162444829940795898e-02,1.115747988224029541e-01,-3.617337346076965332e-02,6.954795122146606445e-02,1.062220633029937744e-01,2.848649024963378906e-02,1.110589504241943359e-01,-6.642588973045349121e-02,-9.718507528305053711e-03,1.176693737506866455e-01,1.032085418701171875e-01,-6.845900416374206543e-02,4.218748211860656738e-02,-1.344999670982360840e-02,-1.556512713432312012e-02,-2.034962177276611328e-03,5.509093403816223145e-02,7.710766792297363281e-02,-9.085097908973693848e-02,-8.986046910285949707e-02,5.585527420043945312e-02,3.169804811477661133e-03,-1.056352555751800537e-01,-7.629474997520446777e-02,-7.901972532272338867e-02,1.147063672542572021e-01,8.005291223526000977e-03,7.210579514503479004e-02,-4.095104336738586426e-02,-5.404436588287353516e-02,-9.584277868270874023e-02,-1.091676056385040283e-01,7.993346452713012695e-02,-7.653325796127319336e-03,7.747554779052734375e-02,-6.674188375473022461e-02,-9.987825155258178711e-02,9.824389219284057617e-02,-1.165205538272857666e-01,-1.684087514877319336e-02,-1.034301221370697021e-01,-6.833070516586303711e-02,-8.449691534042358398e-02,1.037063002586364746e-01,-7.149058580398559570e-02,-1.213728487491607666e-01,1.208575367927551270e-01,-9.454470872879028320e-02,3.262609243392944336e-03,7.794001698493957520e-02,-9.372398257255554199e-02,8.803874254226684570e-02,-9.827822446823120117e-03,-8.320385217666625977e-02,-9.613186120986938477e-03,1.017585992813110352e-01,-7.173240184783935547e-02,3.206112980842590332e-02,-1.154556274414062500e-01,4.816818237304687500e-02,9.260800480842590332e-02,-7.410001754760742188e-02,3.052684664726257324e-02,2.969706058502197266e-02,-8.328196406364440918e-02,-5.736052989959716797e-03,1.095771789550781250e-03,-6.112611293792724609e-02,9.062480926513671875e-02,8.437648415565490723e-02,-5.041831731796264648e-02,8.189031481742858887e-02,-1.115780472755432129e-01,-3.395310044288635254e-02,-1.043140590190887451e-01,2.519598603248596191e-02,4.412442445755004883e-02,1.104987859725952148e-01,-6.570726633071899414e-03,-7.722178101539611816e-02,7.372969388961791992e-02,-1.173194646835327148e-01,5.378773808479309082e-02,-1.339834928512573242e-02,-7.953304052352905273e-02,-9.892135858535766602e-03,-5.189740657806396484e-02,1.033139228820800781e-02,6.861326098442077637e-02,-5.785632133483886719e-02,3.812092542648315430e-02,6.617575883865356445e-03,2.706927061080932617e-02,1.001816689968109131e-01,-9.610894322395324707e-02,5.359357595443725586e-02,-3.002864122390747070e-02
8.074638433754444122e-03,6.561537832021713257e-02,3.050904162228107452e-02,-8.938416838645935059e-02,-5.561048164963722229e-02,-1.348072737455368042e-01,-3.542090207338333130e-02,-1.084765195846557617e-01,1.219981163740158081e-01,1.132349967956542969e-01,-1.205011606216430664e-01,7.706555724143981934e-02,-7.145281136035919189e-02,6.781600415706634521e-02,2.880277112126350403e-02,6.065092608332633972e-02,1.045989245176315308e-01,1.008889749646186829e-01,-2.750759944319725037e-03,-1.150986775755882263e-01,-1.145035307854413986e-02,-1.104361712932586670e-01,1.228454709053039551e-01,-1.094273701310157776e-01,2.291903272271156311e-02,8.689672499895095825e-02,-1.223099231719970703e-01,-1.176843866705894470e-01,5.187695473432540894e-02,-3.201248124241828918e-02,-1.583403162658214569e-02,-1.949679479002952576e-02,8.261253684759140015e-02,4.063068702816963196e-02,3.571248147636651993e-03,-1.200781539082527161e-01,6.443054974079132080e-02,9.720177203416824341e-02,1.237906441092491150e-01,-1.043795347213745117e-01,1.012840867042541504e-01,-7.390515506267547607e-02,8.184366859495639801e-03,-9.069011360406875610e-02,-2.311263419687747955e-02,-6.111259013414382935e-02,-2.769275009632110596e-02,1.033506840467453003e-01,1.682004332542419434e-02,-9.132034331560134888e-02,-8.870377391576766968e-02,9.158389270305633545e-02,9.740379452705383301e-02,-2.359128184616565704e-02,1.171861886978149414e-01,-5.206803325563669205e-03,4.003139957785606384e-02,2.163810841739177704e-02,-9.730896353721618652e-02,-1.170821115374565125e-01,-1.629847846925258636e-02,-4.634853824973106384e-02,3.347790986299514771e-02,6.368845701217651367e-02,3.768534213304519653e-02,7.322527468204498291e-02,-3.685447853058576584e-03,-3.279630839824676514e-02,-1.216101944446563721e-01,4.536940902471542358e-02,1.081206351518630981e-01,-2.539368346333503723e-02,7.201957632787525654e-04,4.512586444616317749e-02,-4.562026634812355042e-02,-1.144935861229896545e-01,-5.712067708373069763e-03,-3.310753032565116882e-02,1.532453857362270355e-02,7.183810323476791382e-02,3.128540888428688049e-02,-1.099478080868721008e-01,6.714069098234176636e-02,-9.543283283710479736e-02,-6.522480398416519165e-02,4.641953110694885254e-02,-5.793591961264610291e-02,-4.851666092872619629e-02,-8.224991708993911743e-02,3.088613413274288177e-02,-7.479606568813323975e-02,8.383904583752155304e-03,-3.272748738527297974e-02,3.749880194664001465e-02,-5.110221728682518005e-02,1.212188508361577988e-02,1.476704776287078857e-01,-6.636975705623626709e-02,-4.175260290503501892e-02,-9.312418103218078613e-02,-1.357184052467346191e-01,6.243162974715232849e-02,-1.069500669836997986e-01,-7.190894335508346558e-02,-1.265142858028411865e-01,9.930709749460220337e-02,2.477055182680487633e-03,-5.923439934849739075e-02,1.790183945558965206e-03,9.901646524667739868e-02,2.546301484107971191e-02,3.086200356483459473e-02,4.804867506027221680e-02,-8.429959416389465332e-03,-3.003109246492385864e-02,-7.398302108049392700e-02,-8.277639001607894897e-02,-1.331908255815505981e-01,-9.092786908149719238e-02,-1.252785176038742065e-01,-4.275688901543617249e-02,-1.142134964466094971e-01,-7.154795527458190918e-02,-4.215843230485916138e-02,-7.137073576450347900e-02,-1.223788335919380188e-01,6.906872987747192383e-02,-9.063510596752166748e-02
-3.251895308494567871e-02,1.656708493828773499e-02,-7.072854787111282349e-02,-1.136784926056861877e-01,-3.406079113483428955e-02,-8.316928148269653320e-02,2.738157659769058228e-02,-1.097843348979949951e-01,-1.109557449817657471e-01,-8.487927913665771484e-02,2.015024982392787933e-02,-5.499916523694992065e-02,-1.016315296292304993e-01,6.246644631028175354e-02,2.106281369924545288e-02,3.037118166685104370e-02,-1.210329979658126831e-01,-2.827469445765018463e-02,-3.563154116272926331e-02,1.350762788206338882e-02,1.293382197618484497e-01,5.998588725924491882e-02,6.308402866125106812e-02,-7.002732157707214355e-02,-1.253649443387985229e-01,1.068219691514968872e-01,-5.082242563366889954e-02,-6.156910210847854614e-02,-4.105295985937118530e-02,-6.923807784914970398e-03,-1.013408228754997253e-01,-8.187974989414215088e-02,6.786781549453735352e-02,5.362838879227638245e-02,1.077709347009658813e-02,1.436121463775634766e-01,-9.064473956823348999e-02,4.697802010923624039e-03,-6.094996631145477295e-02,-7.521115988492965698e-02,-5.649653822183609009e-02,1.117037236690521240e-01,8.988776057958602905e-02,1.512695290148258209e-02,7.851477712392807007e-03,-6.174645572900772095e-02,-7.907172292470932007e-02,-8.564998209476470947e-02,-4.723689705133438110e-02,-2.326442860066890717e-02,9.565952233970165253e-03,-6.500918418169021606e-02,9.614264219999313354e-02,6.201082840561866760e-02,-1.009085923433303833e-01,6.962433457374572754e-02,4.204834252595901489e-02,3.371196985244750977e-02,2.793942205607891083e-02,4.526657238602638245e-02,-8.557993918657302856e-03,-3.723711147904396057e-02,1.084816753864288330e-01,5.616305395960807800e-02,-4.706126824021339417e-02,-1.117370426654815674e-01,3.301242366433143616e-03,-5.733218044042587280e-02,-1.315928809344768524e-02,5.171969160437583923e-02,8.723338693380355835e-02,6.693787127733230591e-02,-1.039656475186347961e-01,-6.715457141399383545e-02,-4.226724430918693542e-02,-8.108925074338912964e-02,1.109446063637733459e-01,1.047603413462638855e-01,1.785260811448097229e-02,-8.551961928606033325e-02,8.553087711334228516e-02,9.786468744277954102e-02,-5.671871080994606018e-02,9.863631427288055420e-02,-6.706694513559341431e-02,8.291637897491455078e-02,-1.124046966433525085e-01,5.323446914553642273e-02,-1.097552999854087830e-01,-8.303347975015640259e-02,1.297454386949539185e-01,-1.363517623394727707e-02,-9.552659839391708374e-02,-1.171149909496307373e-01,1.135324835777282715e-01,6.342044472694396973e-02,9.472203254699707031e-02,-2.902915515005588531e-02,-1.038537174463272095e-01,-1.182120442390441895e-01,-4.066297411918640137e-02,2.235875092446804047e-02,3.434574604034423828e-02,-2.066252939403057098e-02,4.016562178730964661e-02,-4.837058857083320618e-02,4.133617132902145386e-02,1.155068352818489075e-01,1.142687201499938965e-01,7.297968864440917969e-02,6.865154951810836792e-02,-8.296088129281997681e-02,-3.723438456654548645e-02,3.627061098814010620e-02,-5.221554264426231384e-02,3.702720254659652710e-02,-1.013794243335723877e-01,5.718367919325828552e-02,1.174497604370117188e-01,-6.791482120752334595e-02,5.777717567980289459e-03,1.571559906005859375e-02,-8.729690313339233398e-02,-9.109703451395034790e-02,-1.192813292145729065e-01,-6.615699082612991333e-02,-4.594871029257774353e-02,1.020651981234550476e-01
1.284539252519607544e-01,-1.260305643081665039e-01,-8.706136047840118408e-02,1.059531196951866150e-01,-3.424876555800437927e-02,3.085274249315261841e-02,9.932944923639297485e-02,2.637958526611328125e-02,9.756342321634292603e-02,1.043377816677093506e-01,-1.013294328004121780e-02,2.507367730140686035e-02,-1.200123205780982971e-01,1.990561373531818390e-02,-1.148849129676818848e-01,5.836477875709533691e-02,3.409166261553764343e-02,4.029745981097221375e-02,-1.030745878815650940e-01,6.640807539224624634e-02,-4.534400627017021179e-02,7.273268699645996094e-02,-5.692487582564353943e-02,1.431402936577796936e-02,1.241309940814971924e-01,1.525425631552934647e-02,-6.580654531717300415e-02,1.012700051069259644e-01,3.830367699265480042e-02,-7.115402072668075562e-02,5.329962819814682007e-02,1.239667758345603943e-01,-3.629334503784775734e-03,1.082389727234840393e-01,1.204357966780662537e-01,-1.333177536725997925e-01,5.806864798069000244e-02,9.686575084924697876e-02,3.485116362571716309e-02,5.920989811420440674e-02,1.007597520947456360e-01,-9.526898153126239777e-03,-2.678699605166912079e-02,7.137142866849899292e-02,9.597061574459075928e-02,-1.331387609243392944e-01,7.365243881940841675e-02,-7.297826930880546570e-03,-1.399268512614071369e-03,9.903071448206901550e-03,9.871734678745269775e-02,1.314047724008560181e-01,1.134485974907875061e-01,-6.603425741195678711e-02,1.115629673004150391e-01,3.517821431159973145e-02,3.052576677873730659e-03,8.937437087297439575e-02,1.144128963351249695e-01,-7.916466891765594482e-02,8.864343981258571148e-04,1.132377013564109802e-01,-1.018506288528442383e-01,6.575882434844970703e-04,1.905637793242931366e-02,-6.196453049778938293e-02,4.871717188507318497e-03,1.818299479782581329e-02,9.551829844713211060e-02,1.520441472530364990e-02,5.595752224326133728e-02,-3.622881323099136353e-02,-2.991099841892719269e-02,-2.952460199594497681e-02,1.100562661886215210e-01,-5.422767996788024902e-02,-9.701102226972579956e-02,3.380348533391952515e-02,4.804512485861778259e-02,9.064473956823348999e-02,-5.975795537233352661e-02,1.122298985719680786e-01,7.851848006248474121e-02,-5.443277955055236816e-02,-9.085406363010406494e-02,8.995333313941955566e-02,1.245382428169250488e-02,-5.807874840684235096e-04,9.981995820999145508e-02,9.088344126939773560e-02,-9.056627750396728516e-02,3.848285228013992310e-02,-1.167172715067863464e-01,8.215545862913131714e-02,4.938177019357681274e-02,-1.150563284754753113e-01,-1.186035946011543274e-01,-5.327982455492019653e-02,2.247545309364795685e-02,-4.468402266502380371e-02,6.161661073565483093e-02,6.310091167688369751e-02,1.025761365890502930e-01,6.775158643722534180e-02,5.685969442129135132e-02,-1.024473235011100769e-01,-8.646076172590255737e-02,1.078413724899291992e-01,-7.854861766099929810e-02,5.012038350105285645e-02,2.721654064953327179e-02,4.246147722005844116e-02,-1.100007072091102600e-01,1.139252819120883942e-02,3.309272229671478271e-03,-3.042078576982021332e-02,7.034719735383987427e-02,-3.765660896897315979e-02,-9.040376543998718262e-02,9.905235469341278076e-02,-8.458629250526428223e-02,2.510383725166320801e-02,-1.221310198307037354e-01,8.238802105188369751e-02,1.209369003772735596e-01,-5.307883024215698242e-02,-1.022844240069389343e-01,4.112019389867782593e-02
1.856309175491333008e-02,-9.671148657798767090e-02,1.143213510513305664e-01,-4.682201147079467773e-02,-7.601043581962585449e-02,-6.946939229965209961e-02,-4.786968231201171875e-03,-7.430458068847656250e-02,-5.337649583816528320e-02,-6.447142362594604492e-02,3.244176506996154785e-02,-2.621030807495117188e-02,8.458998799324035645e-02,-3.551423549652099609e-02,7.753589749336242676e-02,3.516235947608947754e-02,1.169689595699310303e-01,1.743763685226440430e-03,-4.975289106369018555e-02,-7.637712359428405762e-02,-7.350116968154907227e-02,-1.831999421119689941e-02,1.020595133304595947e-01,1.134122610092163086e-01,-1.472789049148559570e-02,4.744094610214233398e-02,-9.789806604385375977e-02,1.068755984306335449e-02,-1.124429702758789062e-02,3.803157806396484375e-02,-1.117688417434692383e-02,6.706592440605163574e-02,-8.257877826690673828e-02,3.023234009742736816e-02,-7.208698987960815430e-02,8.012717962265014648e-02,-9.705421328544616699e-02,1.099439561367034912e-01,-9.959638118743896484e-03,-7.827031612396240234e-02,2.924683690071105957e-02,2.485918998718261719e-02,-1.059672236442565918e-01,1.120617687702178955e-01,-9.761205315589904785e-02,-9.459406137466430664e-02,-7.287502288818359375e-02,3.200334310531616211e-02,1.154667139053344727e-02,-4.768773913383483887e-02,5.487188696861267090e-02,6.340005993843078613e-02,1.002025306224822998e-01,-4.062956571578979492e-02,-3.410756587982177734e-02,-2.933382987976074219e-03,1.166234612464904785e-01,1.198311746120452881e-01,6.212681531906127930e-02,3.239080309867858887e-02,1.039701402187347412e-01,-1.110695898532867432e-01,-2.685183286666870117e-02,-5.418747663497924805e-02,4.732644557952880859e-02,-2.394196391105651855e-02,-1.023214161396026611e-01,-1.356929540634155273e-02,-7.468855381011962891e-02,-6.985038518905639648e-02,6.593644618988037109e-03,3.744468092918395996e-02,2.488106489181518555e-03,4.336139559745788574e-02,4.569527506828308105e-02,4.597067832946777344e-03,1.034175455570220947e-01,-4.897549748420715332e-02,-5.381879210472106934e-02,-1.124708354473114014e-01,-7.835748791694641113e-02,7.580587267875671387e-02,4.839801788330078125e-02,1.068702638149261475e-01,6.683158874511718750e-02,1.323157548904418945e-02,1.177311539649963379e-01,-6.838321685791015625e-02,1.217380166053771973e-01,-4.775357246398925781e-02,-5.977430939674377441e-02,-1.163385212421417236e-01,-1.129353940486907959e-01,-9.687426686286926270e-02,-1.148853898048400879e-01,-5.735456943511962891e-03,6.512925028800964355e-02,2.398943901062011719e-02,-4.379051923751831055e-02,-8.691310882568359375e-02,-7.173430919647216797e-02,2.342692017555236816e-02,2.866631746292114258e-02,-6.598562002182006836e-02,-3.847840428352355957e-02,-1.020747423171997070e-01,-3.433567285537719727e-02,-2.391871809959411621e-02,7.996928691864013672e-02,-9.249550104141235352e-02,6.983041763305664062e-02,-2.234110236167907715e-02,4.457259178161621094e-02,1.117302477359771729e-01,1.199146211147308350e-01,-5.298292636871337891e-02,-3.874534368515014648e-02,3.296229243278503418e-02,-1.192784309387207031e-01,1.179412901401519775e-01,-9.156873822212219238e-02,-1.248637735843658447e-01,-9.524515271186828613e-02,-4.632142186164855957e-02,5.458265542984008789e-03,-7.225841283798217773e-03,7.952007651329040527e-02,-2.036592364311218262e-02
