-3.103266353718936443e-04
0.000000000000000000e+00
-3.898955183103680611e-03
-4.255892999935895205e-04
-6.161170313134789467e-04
5.508862159331329167e-05
-6.320333923213183880e-04
-1.726941845845431089e-04
-1.454856683267280459e-04
1.214300515130162239e-03
3.282018878962844610e-04
8.866440621204674244e-04
3.806544118560850620e-04
-8.039374370127916336e-04
-3.535754804033786058e-04
-1.610997715033590794e-03
-5.274873110465705395e-04
2.113373950123786926e-03
-1.746034977259114385e-04
2.792100131046026945e-04
-2.908669121097773314e-04
-4.245471209287643433e-04
-1.642667222768068314e-03
5.337130278348922729e-04
-6.421053694793954492e-05
0.000000000000000000e+00
-6.345503497868776321e-04
-1.346325268968939781e-03
-1.501886639744043350e-03
0.000000000000000000e+00
5.015705828554928303e-04
0.000000000000000000e+00
1.514332951046526432e-03
3.461306216195225716e-03
4.136322822887450457e-04
-1.962958835065364838e-03
-2.969105960801243782e-03
-2.591276774182915688e-03
4.138739604968577623e-04
-3.632159205153584480e-04
2.974423405248671770e-04
0.000000000000000000e+00
-7.839189493097364902e-05
1.209423877298831940e-03
0.000000000000000000e+00
5.799388745799660683e-04
1.136716600740328431e-04
0.000000000000000000e+00
0.000000000000000000e+00
0.000000000000000000e+00
0.000000000000000000e+00
1.442224602214992046e-03
3.463614033535122871e-03
2.499924739822745323e-04
-9.850214701145887375e-04
2.174326218664646149e-03
2.397639764240011573e-04
2.591470256447792053e-04
9.522027685306966305e-04
9.243504609912633896e-04
-5.441407556645572186e-04
0.000000000000000000e+00
-3.161764179822057486e-04
-1.326661295024678111e-04
7.847230881452560425e-04
3.919476876035332680e-04
-4.290603974368423223e-04
-1.974059036001563072e-03
-4.170264001004397869e-04
-2.237044507637619972e-03
-5.385083495639264584e-04
-1.996346050873398781e-03
-1.592385466210544109e-03
-7.271033828146755695e-04
1.788371941074728966e-03
-1.462828833609819412e-03
-7.741072331555187702e-04
-4.111118614673614502e-03
-2.578365849331021309e-03
1.068479177774861455e-04
5.636080168187618256e-04
0.000000000000000000e+00
-6.110540125519037247e-04
2.574303885921835899e-03
6.834567102487199008e-06
-1.121974084526300430e-03
-8.155019895639270544e-05
-1.003097277134656906e-03
-1.677280088188126683e-04
-8.109133341349661350e-04
-6.262104143388569355e-04
-1.547190011478960514e-03
0.000000000000000000e+00
2.323217486264184117e-04
1.032134052366018295e-03
-1.687241252511739731e-03
-1.399382017552852631e-03
-3.981045738328248262e-04
-1.514466246590018272e-03
0.000000000000000000e+00
-1.018591923639178276e-03
0.000000000000000000e+00
-4.598634841386228800e-04
6.298954249359667301e-04
1.058948808349668980e-03
-7.290927460417151451e-04
0.000000000000000000e+00
-3.109138924628496170e-04
7.683209332753904164e-06
-1.077809793059714139e-04
1.605955476406961679e-04
0.000000000000000000e+00
2.261895278934389353e-04
-7.461466011591255665e-04
0.000000000000000000e+00
-4.579472297336906195e-04
-6.682646198896691203e-05
-8.852342143654823303e-04
1.434855403203982860e-05
3.009836073033511639e-04
-1.020119176246225834e-03
-1.369381672702729702e-03
7.156240753829479218e-04
8.156938129104673862e-04
-4.798229492735117674e-04
-4.973440663889050484e-04
3.654092317447066307e-03
0.000000000000000000e+00
-2.060734434053301811e-03
-1.656865468248724937e-03
-1.214156975038349628e-03
0.000000000000000000e+00
-1.428680727258324623e-03
0.000000000000000000e+00
1.289593288674950600e-03
-1.196450670249760151e-03
9.036640403792262077e-04
8.455028291791677475e-04
0.000000000000000000e+00
-2.086472377413883805e-04
1.363000366836786270e-03
-5.004287231713533401e-04
1.827190164476633072e-03
1.834257738664746284e-03
8.779980707913637161e-04
0.000000000000000000e+00
0.000000000000000000e+00
-1.382410060614347458e-03
-4.077412595506757498e-04
-1.424920745193958282e-03
-7.558960351161658764e-04
-2.491720486432313919e-03
-6.255311291170073673e-06
-3.058689762838184834e-04
-1.710259006358683109e-03
-2.198151312768459320e-03
2.160907461075112224e-04
-1.262569217942655087e-03
1.301709446124732494e-03
-3.710779128596186638e-04
6.845752941444516182e-04
-4.295210528653115034e-04
-8.629523654235526919e-05
-2.064922737190499902e-04
-7.297983393073081970e-04
-2.584354078862816095e-04
-5.524826701730489731e-04
-2.503590367268770933e-04
3.041108837351202965e-03
-9.235330508090555668e-04
0.000000000000000000e+00
-2.618629485368728638e-03
-2.218422945588827133e-03
-1.707710907794535160e-03
2.271859440952539444e-03
5.722962305299006402e-05
1.690468343440443277e-04
-6.806050660088658333e-04
-5.374712636694312096e-04
4.199880640953779221e-04
8.562571019865572453e-04
-3.028023988008499146e-03
0.000000000000000000e+00
0.000000000000000000e+00
-3.231471404433250427e-03
-1.237332122400403023e-03
0.000000000000000000e+00
3.639416245277971029e-04
-2.064973377855494618e-04
2.780278446152806282e-03
-1.674361643381416798e-03
-2.948016859591007233e-03
0.000000000000000000e+00
-1.028026221320033073e-03
-3.372838546056300402e-04
-8.686142391525208950e-04
-2.151059597963467240e-04
-3.739116800716146827e-05
-2.687723608687520027e-03
-9.438293636776506901e-05
-1.944781281054019928e-03
4.907160182483494282e-04
5.431106546893715858e-04
1.250383793376386166e-03
0.000000000000000000e+00
0.000000000000000000e+00
0.000000000000000000e+00
-1.695009996183216572e-03
0.000000000000000000e+00
-7.902427460066974163e-04
5.268794484436511993e-03
-3.759721061214804649e-03
-4.496017936617136002e-04
2.382371458224952221e-04
1.908100966829806566e-04
2.143941354006528854e-03
2.989044005516916513e-04
-7.889544940553605556e-04
-3.379904082976281643e-04
0.000000000000000000e+00
0.000000000000000000e+00
-1.014536130242049694e-03
-2.751720312517136335e-04
8.103708387352526188e-04
2.035158453509211540e-03
-7.099226349964737892e-04
-1.993335084989666939e-03
6.698557408526539803e-04
-1.205180888064205647e-03
-3.914953675121068954e-03
0.000000000000000000e+00
-2.629191614687442780e-03
1.377193257212638855e-04
2.320133848115801811e-03
7.649704930372536182e-04
1.156291225925087929e-03
0.000000000000000000e+00
-1.671519014053046703e-03
8.917014347389340401e-04
0.000000000000000000e+00
-5.316654569469392300e-04
-5.314350710250437260e-04
-2.041342901065945625e-03
-2.418602671241387725e-04
-1.691532088443636894e-03
0.000000000000000000e+00
0.000000000000000000e+00
-2.630269853398203850e-03
-1.078309578588232398e-04
-3.749543102458119392e-04
-1.581678166985511780e-03
-1.708588912151753902e-03
-6.665468099527060986e-04
2.447614911943674088e-03
0.000000000000000000e+00
-1.202642451971769333e-03
